%YAML:1.0
---
opencv_ml_svm:
   format: 3
   svmType: C_SVC
   kernel:
      type: RBF
      gamma: 5.0000000000000000e-01
   C: 1.
   term_criteria: { epsilon:1.1920928955078125e-07, iterations:1000 }
   var_count: 64
   class_count: 10
   class_labels: !!opencv-matrix
      rows: 10
      cols: 1
      dt: i
      data: [ 48, 49, 50, 51, 52, 53, 54, 55, 56, 57 ]
   sv_total: 1027
   support_vectors:
      - [ 3.24462563e-01, 1.57621101e-01, 0., 0., 7.43770925e-03,
          5.56098484e-03, 5.41641982e-03, 1.43998742e-01, 2.62059927e-01,
          8.48036781e-02, 7.99726695e-02, 1.18492804e-01, 1.55790756e-02,
          2.81520467e-02, 1.38045521e-02, 1.04333222e-01, 2.74867177e-01,
          1.18606668e-02, 0., 3.69937494e-02, 1.03000969e-01,
          9.57537964e-02, 8.71887803e-02, 1.61543727e-01, 2.50787139e-01,
          0., 0., 0., 3.71885463e-03, 0., 1.60128772e-01, 2.01445282e-01,
          2.07425326e-01, 1.04782820e-01, 4.39472571e-02, 0., 0.,
          6.51665479e-02, 1.61545947e-01, 1.55819029e-01, 2.58427113e-01,
          7.76287029e-03, 0., 3.73258442e-02, 1.28479138e-01,
          8.18271115e-02, 1.41942978e-01, 8.89840499e-02, 2.51970679e-01,
          1.19852506e-01, 7.83200040e-02, 1.18033871e-01, 5.25925448e-03,
          2.82458737e-02, 6.55083135e-02, 1.47896469e-01, 2.78632075e-01,
          1.52526647e-01, 1.03453457e-01, 0., 0., 0., 8.59189183e-02,
          8.35819170e-02 ]
      - [ 1.89904124e-01, 1.94464013e-01, 5.64326067e-03, 0.,
          3.92034687e-02, 0., 4.84878048e-02, 2.47559264e-01,
          9.97072309e-02, 1.04150422e-01, 1.30637407e-01, 1.08893558e-01,
          7.86658376e-02, 3.36253718e-02, 3.25435698e-02, 2.26343781e-01,
          1.11441217e-01, 2.74962541e-02, 0., 0., 1.07175894e-01,
          1.34191439e-01, 1.01745561e-01, 2.59417921e-01, 3.76888886e-02,
          4.48792009e-03, 1.05467848e-02, 0., 6.67361990e-02,
          1.30445063e-01, 2.04342350e-01, 2.59821296e-01, 4.16838229e-02,
          2.12191734e-02, 0., 0., 0., 1.82793755e-02, 2.11292401e-01,
          2.77624905e-01, 1.18622229e-01, 5.64326067e-03, 0., 0.,
          8.88967216e-02, 1.58420995e-01, 9.45306495e-02, 2.74553359e-01,
          1.01489566e-01, 9.73225459e-02, 1.32366449e-01, 1.36967450e-01,
          0., 0., 4.97312285e-02, 1.98784843e-01, 2.18980357e-01,
          1.54548600e-01, 1.18736081e-01, 7.88630918e-02, 6.02581725e-03,
          0., 1.10493582e-02, 2.30159134e-01 ]
      - [ 2.38380805e-01, 1.64556250e-01, 4.06156816e-02, 0.,
          9.82641056e-03, 8.86781700e-03, 0., 2.48835430e-01,
          1.41426221e-01, 6.43924773e-02, 1.11803807e-01, 1.15212597e-01,
          1.59960259e-02, 0., 1.05849430e-02, 2.41431266e-01,
          1.78799957e-01, 4.67238799e-02, 5.55377640e-03, 0.,
          1.21843345e-01, 1.02417082e-01, 1.62931502e-01, 1.05837911e-01,
          1.94947153e-01, 9.81435254e-02, 5.55377640e-03, 0.,
          4.17026728e-02, 5.60981818e-02, 1.23834662e-01, 2.75421530e-01,
          1.83782160e-01, 2.71747094e-02, 0., 0., 0., 1.18717760e-01,
          1.31069377e-01, 2.93342352e-01, 1.67162970e-01, 8.33533518e-03,
          0., 0., 7.39164129e-02, 9.61253643e-02, 1.50460288e-01,
          1.84142664e-01, 2.12922096e-01, 1.15461268e-01, 8.74765366e-02,
          5.86923882e-02, 1.18175335e-02, 0., 6.24623569e-03,
          2.76602447e-01, 2.29964525e-01, 9.77741405e-02, 0.,
          7.54150655e-03, 0., 3.13877165e-02, 2.40166411e-02,
          2.02844739e-01 ]
      - [ 2.40567654e-01, 6.55379668e-02, 6.55564480e-03, 7.79601932e-03,
          1.70708485e-02, 2.58163102e-02, 4.66093831e-02, 3.64084333e-01,
          8.81811380e-02, 9.52941552e-02, 0., 9.50216576e-02,
          1.43254980e-01, 2.58297175e-02, 7.09070265e-02, 3.28177333e-01,
          1.33520305e-01, 6.55564480e-03, 5.33091277e-02, 7.79601932e-03,
          7.59335188e-03, 2.47785635e-02, 1.30905747e-01, 2.55771846e-01,
          9.87886414e-02, 5.21351211e-03, 9.27108154e-03, 8.87576118e-02,
          1.22068800e-01, 1.62411332e-01, 2.15618551e-01, 1.51349097e-01,
          9.73529443e-02, 9.37945172e-02, 0., 0., 0., 1.02406144e-01,
          1.78860933e-01, 2.64673829e-01, 2.09540531e-01, 9.55209062e-02,
          6.95574805e-02, 0., 0., 1.05312623e-01, 1.30341619e-01,
          3.07891756e-01, 4.38402360e-03, 0., 0., 0., 8.94413609e-03,
          1.24841183e-02, 8.06454569e-02, 1.29717022e-01, 1.11659400e-01,
          8.47137570e-02, 8.55341107e-02, 5.91038354e-02, 6.50797337e-02,
          9.23383012e-02, 1.09188057e-01, 1.39768496e-01 ]
      - [ 1.70285732e-01, 1.10794097e-01, 0., 0., 1.03555610e-02, 0.,
          3.40260658e-03, 3.40386659e-01, 1.50006548e-01, 8.37078989e-02,
          0., 0., 0., 3.79549563e-02, 9.00245085e-03, 3.22395802e-01,
          8.14400166e-02, 9.54149663e-02, 5.29636927e-02, 0.,
          1.11413151e-02, 1.26097336e-01, 1.33682206e-01, 2.03604415e-01,
          8.06808546e-02, 4.81201243e-03, 6.11554086e-02, 1.23003423e-01,
          1.16644770e-01, 1.64756581e-01, 1.88233152e-01, 1.63418770e-01,
          1.76841021e-01, 1.61731526e-01, 4.94090505e-02, 0., 0.,
          5.11696562e-02, 1.25183538e-01, 3.36675137e-01, 1.14378028e-01,
          5.89348748e-03, 0., 0., 0., 5.15003502e-02, 1.24946043e-01,
          2.64881551e-01, 5.08808345e-03, 1.18873179e-01, 9.54885408e-02,
          9.27773491e-02, 0., 0., 3.40260658e-03, 1.07260279e-01,
          1.37298882e-01, 2.04569280e-01, 1.48072705e-01, 1.11476354e-01,
          9.14774910e-02, 4.93146032e-02, 9.66196507e-02, 1.84264258e-01 ]
      - [ 8.27288479e-02, 1.15072586e-01, 2.30357319e-01, 5.11130765e-02,
          1.58490166e-02, 0., 4.44246037e-03, 9.39465966e-03,
          1.13075310e-02, 9.41590071e-02, 1.27567694e-01, 1.35190964e-01,
          7.39161372e-02, 1.00743122e-01, 8.54527503e-02, 6.64411187e-02,
          1.45804957e-01, 4.47514467e-02, 1.12116858e-01, 6.64302753e-03,
          1.29406676e-02, 0., 0., 0., 0., 0., 0., 0., 9.15043335e-03,
          2.39517763e-02, 8.88492074e-03, 8.66782442e-02, 2.98925608e-01,
          4.16153781e-02, 0., 2.33750597e-01, 1.90700009e-01,
          1.38364792e-01, 2.16056868e-01, 1.57900676e-01, 3.33908856e-01,
          7.22679049e-02, 0., 6.64302753e-03, 2.03257844e-01,
          1.75073847e-01, 8.28470960e-02, 1.35123536e-01, 2.68312544e-01,
          0., 9.81372595e-02, 2.65980214e-02, 0., 0., 4.19221222e-02,
          2.20613837e-01, 2.60138065e-01, 2.37440050e-01, 1.03782289e-01,
          6.64302753e-03, 0., 7.24143684e-02, 9.35117975e-02,
          2.00997755e-01 ]
      - [ 4.67757098e-02, 1.71490505e-01, 1.67304367e-01, 1.12554871e-01,
          2.21965443e-02, 8.95324629e-03, 1.34742958e-02, 0.,
          1.46660656e-02, 4.63010781e-02, 1.50829151e-01, 1.40022397e-01,
          1.53599055e-02, 1.19269401e-01, 5.21812215e-02, 8.62100199e-02,
          1.03246301e-01, 7.72717670e-02, 7.59489462e-02, 5.34037538e-02,
          5.91965728e-02, 4.05427143e-02, 6.33796304e-02, 5.07684462e-02,
          1.99471246e-02, 8.78601223e-02, 5.40370792e-02, 1.82050727e-02,
          6.01903722e-02, 7.31164441e-02, 2.37038843e-02, 1.00647680e-01,
          2.82950789e-01, 8.73115808e-02, 0., 1.87463850e-01,
          1.63451284e-01, 1.58117399e-01, 2.46250778e-01, 1.71039730e-01,
          2.86581576e-01, 8.52550045e-02, 0., 0., 1.15070827e-01,
          1.03643872e-01, 2.10498914e-01, 6.44199550e-02, 3.17841023e-01,
          1.01817258e-01, 8.27641860e-02, 0., 7.52875255e-03, 0.,
          3.30881402e-02, 7.52875255e-03, 4.11753356e-01, 1.12689719e-01,
          0., 7.15032890e-02, 1.00482047e-01, 0., 6.79249465e-02,
          2.04562351e-01 ]
      - [ 2.45009527e-01, 1.20780207e-01, 2.00000435e-01, 1.42726794e-01,
          8.50062352e-03, 0., 7.93558452e-03, 9.08556208e-03,
          2.21725374e-01, 1.18946716e-01, 1.07869908e-01, 1.14799947e-01,
          2.87422352e-02, 5.68470964e-03, 7.14814384e-03, 5.23567833e-02,
          2.24371627e-01, 1.08073644e-01, 9.80135649e-02, 7.63391927e-02,
          1.62387323e-02, 0., 1.01699643e-01, 1.02435447e-01,
          2.46932477e-01, 7.79219121e-02, 4.64313254e-02, 7.44548440e-02,
          6.06364571e-02, 8.44686404e-02, 1.12827301e-01, 1.82899505e-01,
          2.23909035e-01, 3.24097499e-02, 4.18752581e-02, 1.48408592e-01,
          1.70861855e-01, 1.03772424e-01, 1.34320498e-01, 1.85328200e-01,
          2.25174889e-01, 3.45339179e-02, 0., 4.21384051e-02,
          7.09644035e-02, 1.82669714e-01, 8.13771561e-02, 0.,
          3.20080131e-01, 8.58117342e-02, 8.69934559e-02, 7.46187642e-02,
          0., 0., 0., 0., 3.42367649e-01, 1.27596304e-01, 1.42334402e-01,
          0., 0., 0., 0., 0. ]
      - [ 2.69574434e-01, 1.66772470e-01, 8.36060941e-02, 7.81619251e-02,
          1.13318227e-02, 4.94878925e-02, 7.05186203e-02, 6.65453672e-02,
          1.28600776e-01, 8.31987336e-02, 0., 8.83958023e-03,
          5.63312992e-02, 8.13333131e-03, 4.33139615e-02, 6.75101951e-02,
          2.61503309e-01, 3.02999243e-02, 0., 5.72173996e-03,
          8.14180076e-03, 0., 5.88847548e-02, 7.43681937e-02,
          1.22775517e-01, 4.74886410e-02, 5.07660545e-02, 9.92177427e-03,
          5.78137785e-02, 9.59414616e-02, 1.31442055e-01, 1.63056523e-01,
          2.19903871e-01, 2.56824233e-02, 1.23263173e-01, 1.30659655e-01,
          9.47947279e-02, 1.85528889e-01, 1.51882499e-01, 1.54175058e-01,
          2.75310636e-01, 1.11617960e-01, 1.50026396e-01, 9.40677896e-02,
          6.86058104e-02, 1.04973488e-01, 1.56326234e-01, 8.61041322e-02,
          3.17409396e-01, 8.19077566e-02, 9.84695554e-02, 7.52546117e-02,
          1.14930943e-01, 8.36448744e-02, 1.33325607e-01, 1.28504649e-01,
          3.90355378e-01, 1.14558190e-01, 0., 0., 6.98669925e-02, 0., 0.,
          0. ]
      - [ 2.69110829e-01, 1.14637233e-01, 1.39410779e-01, 7.82005414e-02,
          1.16196005e-02, 4.88666408e-02, 7.04060197e-02, 3.19324844e-02,
          1.44537359e-01, 8.59977305e-02, 0., 7.25332648e-03,
          5.62693216e-02, 7.55409570e-03, 3.79338376e-02, 6.85752779e-02,
          2.62386352e-01, 2.60837544e-02, 0., 5.70365600e-03,
          8.11606832e-03, 0., 5.33091612e-02, 7.23018125e-02,
          9.77661684e-02, 4.25146222e-02, 4.98167127e-02, 9.89041571e-03,
          5.80613203e-02, 9.57628861e-02, 1.41670302e-01, 1.52160212e-01,
          2.12364271e-01, 4.37275358e-02, 1.65779203e-01, 8.23914856e-02,
          9.28215235e-02, 1.85427845e-01, 1.48997918e-01, 1.53052226e-01,
          2.75484174e-01, 1.07145168e-01, 1.81927189e-01, 0.,
          1.11188352e-01, 6.98746145e-02, 1.34692818e-01, 1.24365330e-01,
          3.16522151e-01, 8.18408802e-02, 6.08122312e-02, 1.09487601e-01,
          1.09740652e-01, 8.32470581e-02, 1.35727733e-01, 1.30808607e-01,
          3.84757429e-01, 1.53799504e-01, 0., 0., 7.24765211e-02, 0.,
          5.20269200e-03, 0. ]
      - [ 1.98181972e-01, 1.84729874e-01, 2.14178786e-01, 1.26973554e-01,
          1.36381872e-02, 0., 0., 5.67532610e-03, 0., 0., 0.,
          1.39324248e-01, 6.93048984e-02, 9.64997187e-02, 9.49992388e-02,
          1.34320527e-01, 2.35513419e-01, 1.12794623e-01, 1.10480793e-01,
          0., 1.10555775e-02, 0., 1.01571977e-02, 2.08637610e-01,
          2.66765386e-01, 9.28827599e-02, 1.31756976e-01, 1.13474555e-01,
          5.66038266e-02, 3.77639122e-02, 1.83654651e-01, 2.36978099e-01,
          1.24012427e-02, 0., 0., 5.67532610e-03, 1.44107446e-01,
          2.72223562e-01, 7.28072003e-02, 1.21886814e-02, 2.00767562e-01,
          1.56646863e-01, 1.06136113e-01, 6.90012351e-02, 4.51342063e-03,
          0., 0., 7.20666209e-03, 7.17203394e-02, 0., 0., 0.,
          7.81747419e-03, 2.25263741e-02, 1.50409728e-01, 2.09161222e-01,
          2.43302539e-01, 1.36662588e-01, 0., 1.29829019e-01,
          1.36392772e-01, 9.90515873e-02, 1.33131385e-01, 2.84066945e-01 ]
      - [ 3.04256618e-01, 8.10050312e-03, 1.11580333e-02, 4.06487696e-02,
          8.87813345e-02, 1.11900866e-01, 1.13331258e-01, 1.72735676e-01,
          3.05560082e-01, 1.08679663e-02, 7.35595822e-03, 9.16691031e-03,
          1.67576559e-02, 7.16139451e-02, 1.87530100e-01, 2.35913023e-01,
          2.42071584e-01, 1.18117593e-01, 9.58417878e-02, 1.19281774e-02,
          9.22085624e-03, 8.93464778e-03, 1.47082414e-02, 0.,
          7.46182632e-03, 1.09420419e-02, 0., 7.66098360e-03,
          1.55948058e-01, 1.53801143e-01, 1.74932703e-02, 8.48861337e-02,
          3.51395905e-01, 1.05410859e-01, 8.35020319e-02, 1.27746239e-01,
          2.49473471e-02, 0., 0., 1.65015146e-01, 3.64751250e-01,
          1.58472434e-01, 7.10373521e-02, 2.04224270e-02, 0., 0., 0.,
          9.66689736e-02, 1.08342664e-02, 6.44209329e-03, 0.,
          4.40397821e-02, 7.33451098e-02, 3.67668048e-02, 1.03405498e-01,
          1.21577770e-01, 2.40031257e-01, 5.19095734e-02, 1.60851613e-01,
          1.63576141e-01, 9.29570198e-02, 0., 8.96422751e-03, 0. ]
      - [ 2.11527497e-01, 1.28796220e-01, 2.56698310e-01, 6.99464679e-02,
          1.28300674e-02, 1.08540012e-02, 3.31889093e-02, 9.12709069e-03,
          1.66634321e-01, 1.20884322e-01, 1.08740881e-01, 1.01421006e-01,
          7.19612166e-02, 0., 1.19416891e-02, 1.29214395e-02,
          2.40020454e-01, 3.41090076e-02, 2.28623282e-02, 8.77102315e-02,
          8.02852511e-02, 3.96306291e-02, 8.66534933e-02, 9.06716809e-02,
          2.45632306e-01, 9.94817242e-02, 2.39769705e-02, 1.01406686e-02,
          1.50912944e-02, 7.46869966e-02, 1.84201673e-01, 1.52327925e-01,
          1.78388536e-01, 3.77629371e-03, 0., 1.43332168e-01,
          1.15065150e-01, 1.99185520e-01, 1.33288890e-01, 1.04322493e-01,
          2.55618781e-01, 3.49405818e-02, 8.52725189e-03, 1.16003556e-02,
          1.43712863e-01, 1.33529931e-01, 0., 1.20293580e-01,
          3.06475282e-01, 1.23256035e-01, 0., 0., 0., 0., 3.48937511e-02,
          1.87996119e-01, 3.12087744e-01, 1.94098696e-01, 0.,
          8.03496689e-02, 0., 0., 8.44021216e-02, 1.54433429e-01 ]
      - [ 3.07657927e-01, 1.80947036e-01, 8.18888322e-02, 6.92144558e-02,
          1.11665893e-02, 0., 1.01759471e-01, 1.26303509e-01,
          1.61150724e-01, 1.07251912e-01, 1.81020707e-01, 5.23815304e-02,
          9.79427435e-03, 7.82853924e-03, 9.42252856e-03, 4.80965488e-02,
          2.52473503e-01, 2.51469817e-02, 1.24637587e-02, 6.80648237e-02,
          9.42081288e-02, 7.94862509e-02, 1.25221208e-01, 1.03846632e-01,
          2.30953157e-01, 2.53733266e-02, 4.20809835e-02, 4.65487735e-03,
          8.49021077e-02, 1.15000494e-01, 2.18060836e-01, 8.77301171e-02,
          2.66165555e-01, 2.44573858e-02, 0., 0., 0., 4.58600409e-02,
          1.83117419e-01, 1.59551188e-01, 2.91512966e-01, 2.47868411e-02,
          0., 0., 1.19808264e-01, 1.29059389e-01, 8.58406499e-02, 0.,
          2.69986272e-01, 1.17366679e-01, 1.34793624e-01, 0., 0., 0.,
          3.11290403e-03, 0., 3.27179730e-01, 1.17490575e-01,
          1.16215132e-01, 8.52578580e-02, 1.17793359e-01, 0., 0., 0. ]
      - [ 1.79574311e-01, 1.89588100e-01, 1.53774172e-01, 1.63426891e-01,
          1.65287685e-02, 6.97701471e-03, 1.74181275e-02, 9.48279258e-03,
          1.70637682e-01, 5.59524447e-02, 9.05415118e-02, 1.34014085e-01,
          5.92425391e-02, 0., 1.36608137e-02, 1.50812268e-02,
          2.88027316e-01, 1.42430328e-02, 8.56786296e-02, 6.60150647e-02,
          1.31969061e-02, 0., 1.76539347e-02, 8.95295814e-02,
          2.80208409e-01, 5.39820008e-02, 7.94127360e-02, 5.86694665e-03,
          9.35066566e-02, 5.68539239e-02, 1.29633665e-01, 1.65153861e-01,
          1.16288058e-01, 6.43711612e-02, 0., 1.32833362e-01,
          2.02540219e-01, 1.27970845e-01, 7.62722045e-02, 1.85571864e-01,
          1.86979711e-01, 1.25073455e-02, 0., 5.86694665e-03,
          1.12859048e-01, 1.21539369e-01, 9.83736813e-02, 1.22673079e-01,
          3.55427951e-01, 9.93189290e-02, 0., 0., 0., 0., 5.54861547e-03,
          1.43972829e-01, 3.86246085e-01, 1.06936336e-01, 1.05606303e-01,
          0., 8.58166590e-02, 0., 7.05252737e-02, 9.90069732e-02 ]
      - [ 2.33943284e-01, 1.37640521e-01, 2.10549280e-01, 1.19594797e-01,
          1.20772831e-02, 7.50524038e-03, 3.19236368e-02, 7.01840175e-03,
          2.03253478e-01, 1.14380792e-01, 1.05540745e-01, 9.87046957e-02,
          1.28760412e-02, 6.57283003e-03, 7.39234779e-03, 0.,
          2.36257374e-01, 8.73477682e-02, 1.21787272e-01, 4.04063538e-02,
          1.49379726e-02, 0., 3.69617390e-03, 1.02065355e-01,
          2.45582923e-01, 9.93925482e-02, 6.90674186e-02, 6.90655187e-02,
          1.55712422e-02, 7.17797503e-02, 1.56327665e-01, 1.79627463e-01,
          2.12492481e-01, 7.39234779e-03, 0., 1.72608748e-01,
          1.44458041e-01, 9.54730287e-02, 1.46388784e-01, 1.82766974e-01,
          2.05238640e-01, 5.44251390e-02, 0., 5.52706886e-03,
          1.20774195e-01, 1.22035198e-01, 1.18276879e-01, 4.42143232e-02,
          2.88823813e-01, 1.27037629e-01, 7.85683617e-02, 2.89376117e-02,
          0., 0., 5.22717927e-03, 1.92432284e-01, 3.08876395e-01,
          1.13431998e-01, 1.71672806e-01, 9.32312086e-02, 0., 0.,
          4.22180966e-02, 1.27613977e-01 ]
      - [ 2.50978857e-01, 1.31071508e-01, 2.04337671e-01, 1.39072925e-01,
          6.78171776e-03, 0., 7.36218225e-03, 0., 2.20641658e-01,
          1.25459895e-01, 1.06776528e-01, 1.07579581e-01, 5.53724915e-03,
          8.28011893e-03, 3.19771096e-02, 9.35143232e-03, 2.42679507e-01,
          5.46336100e-02, 7.62013569e-02, 0., 1.03592444e-02, 0.,
          1.00865476e-02, 4.92338836e-03, 2.76935369e-01, 8.61312225e-02,
          6.79943562e-02, 5.29350489e-02, 5.49376383e-02, 7.50092268e-02,
          7.62339234e-02, 1.55844197e-01, 2.14440525e-01, 7.53044933e-02,
          5.85492840e-03, 1.21473119e-01, 2.18840927e-01, 1.26825944e-01,
          1.10544570e-01, 2.09247753e-01, 2.18011618e-01, 1.86622441e-02,
          0., 7.28936493e-02, 1.16751723e-01, 1.29356474e-01,
          1.31425351e-01, 6.36988953e-02, 2.68313348e-01, 1.20968565e-01,
          1.32550418e-01, 0., 0., 0., 0., 0., 3.56201321e-01,
          1.19174778e-01, 4.38209847e-02, 0., 0., 0., 8.22501928e-02,
          1.62956730e-01 ]
      - [ 2.17829317e-01, 1.42524332e-01, 1.65961385e-01, 1.60893574e-01,
          2.13757046e-02, 1.12308152e-02, 1.42211495e-02, 0.,
          1.45932645e-01, 1.08242244e-01, 1.32555917e-01, 9.79886875e-02,
          4.27015573e-02, 6.95479056e-03, 2.08959375e-02, 5.84825873e-03,
          2.84495890e-01, 8.93236920e-02, 1.22836322e-01, 5.49285151e-02,
          1.47978440e-02, 8.83135572e-03, 4.64037061e-02, 1.14654325e-01,
          2.56462872e-01, 7.45522007e-02, 8.49524662e-02, 9.17327702e-02,
          1.28058614e-02, 6.29073530e-02, 1.25168860e-01, 1.68008283e-01,
          1.14655480e-01, 6.71794340e-02, 0., 1.37977019e-01,
          1.68656692e-01, 1.21343702e-01, 1.25608176e-01, 2.18573824e-01,
          1.26568139e-01, 5.65212518e-02, 0., 1.11081218e-02,
          1.32033914e-01, 9.73231420e-02, 9.43928957e-02, 1.22505859e-01,
          3.49695086e-01, 9.76019949e-02, 0., 0., 0., 0., 3.91096622e-03,
          1.42930031e-01, 3.83077800e-01, 1.30622551e-01, 1.02230012e-01,
          8.65945518e-02, 0., 0., 0., 1.01495244e-01 ]
      - [ 2.94068694e-01, 9.17042512e-03, 0., 0., 7.15281582e-03, 0.,
          1.01322168e-02, 2.08424076e-01, 2.52474934e-01, 1.01298638e-01,
          5.65208867e-03, 7.68106356e-02, 1.36964982e-02, 1.02735013e-02,
          1.15849990e-02, 1.95114568e-01, 2.96514243e-01, 3.17840301e-03,
          8.45184363e-03, 8.23212788e-03, 1.38629049e-01, 8.55689049e-02,
          6.81276247e-02, 2.24438086e-01, 1.96403399e-01, 4.49494040e-03,
          0., 4.75282082e-03, 9.34212189e-03, 0., 1.07116617e-01,
          1.74664825e-01, 2.37885207e-01, 4.49494040e-03, 7.17715453e-03,
          0., 8.45184363e-03, 5.65208867e-03, 0., 2.06291929e-01,
          2.88364232e-01, 9.70561430e-03, 0., 0., 7.53589496e-02,
          6.45388430e-03, 1.12384468e-01, 2.24917874e-01, 2.37289160e-01,
          6.99120685e-02, 1.12075135e-01, 1.17642015e-01, 6.72150403e-03,
          5.65208867e-03, 1.19275944e-02, 2.08590299e-01, 2.93948859e-01,
          1.19961202e-02, 0., 6.72150403e-03, 0., 0., 9.65215825e-03,
          1.77711204e-01 ]
      - [ 2.71797329e-01, 1.84969917e-01, 6.58545792e-02, 9.90158692e-03,
          1.41918538e-02, 4.16397303e-02, 6.87280111e-03, 7.39342421e-02,
          2.22725019e-01, 1.62598103e-01, 1.00426167e-01, 1.04222126e-01,
          1.79885235e-02, 6.84038363e-03, 1.01723924e-01, 1.28521904e-01,
          2.14225948e-01, 1.20137669e-01, 1.24245007e-02, 1.69804305e-01,
          1.09973624e-01, 0., 7.58942664e-02, 5.35373576e-02,
          1.72072068e-01, 1.03738256e-01, 8.79889056e-02, 5.03744977e-03,
          5.46520650e-02, 7.75819495e-02, 1.17836915e-01, 1.10808246e-01,
          2.99277931e-01, 0., 0., 0., 5.03744977e-03, 0., 1.33989230e-01,
          1.71623617e-01, 3.23745936e-01, 2.38399934e-02, 0.,
          8.14207084e-03, 1.34581849e-01, 1.03766292e-01, 8.36727992e-02,
          8.15912932e-02, 3.11750025e-01, 6.74291253e-02, 1.20109461e-01,
          7.09677562e-02, 0., 0., 3.36874579e-03, 5.03744977e-03,
          3.67069930e-01, 1.31539240e-01, 0., 0., 0., 0., 0.,
          6.47836104e-02 ]
      - [ 1.89365581e-01, 1.52064666e-01, 9.96956155e-02, 0.,
          1.15475710e-02, 0., 2.02032253e-02, 2.16012135e-01,
          1.54509306e-01, 1.17060840e-01, 1.36282697e-01, 1.09282389e-01,
          2.81310584e-02, 0., 2.21482236e-02, 2.39702895e-01,
          2.28500590e-01, 2.84950975e-02, 0., 4.47349949e-03,
          1.04478598e-01, 1.13976739e-01, 1.04255371e-01, 2.69433498e-01,
          0., 0., 5.31991711e-03, 0., 9.65941697e-02, 1.31031290e-01,
          1.37177810e-01, 2.22989902e-01, 1.18697599e-01, 1.10005856e-01,
          0., 3.50019634e-02, 1.26030529e-02, 1.06472112e-01,
          1.10998467e-01, 3.04276586e-01, 1.13126509e-01, 3.35144512e-02,
          0., 6.32648356e-03, 1.14415579e-01, 1.61031067e-01,
          8.26445669e-02, 2.16560483e-01, 6.42511472e-02, 1.23622231e-01,
          1.28793448e-01, 7.33154193e-02, 1.13228388e-01, 9.55351535e-03,
          2.32201871e-02, 2.20456064e-01, 2.18247697e-01, 9.21830684e-02,
          1.85148835e-01, 4.47349949e-03, 3.82504724e-02, 1.72834899e-02,
          2.54780781e-02, 2.34020084e-01 ]
      - [ 2.18955100e-01, 1.71938226e-01, 1.32804617e-01, 9.82617065e-02,
          9.40239243e-03, 0., 5.97670535e-03, 2.07347587e-01,
          1.30981073e-01, 8.82377103e-02, 1.69024527e-01, 1.10470265e-01,
          8.70492402e-03, 0., 7.18979910e-02, 1.78838059e-01,
          1.76811010e-01, 7.25798681e-02, 0., 3.10245417e-02,
          1.05485924e-01, 1.50353760e-01, 1.27064362e-01, 2.26348147e-01,
          5.06346710e-02, 4.25304398e-02, 0., 6.31959690e-03,
          1.06079072e-01, 9.17678475e-02, 1.66006133e-01, 2.26015881e-01,
          1.46525707e-02, 5.97670581e-03, 0., 0., 7.13424608e-02,
          1.98343784e-01, 1.30260706e-01, 1.89242244e-01, 2.18920529e-01,
          8.08865428e-02, 6.74800202e-03, 4.46862960e-03, 7.25320801e-02,
          1.57680646e-01, 7.69775361e-02, 2.61347651e-01, 8.96505788e-02,
          1.44876406e-01, 1.11931212e-01, 1.04937412e-01, 1.00515811e-02,
          1.81807596e-02, 1.08362503e-01, 2.03538716e-01, 1.58810526e-01,
          2.03114435e-01, 1.21875107e-01, 9.39902142e-02, 1.12380087e-02,
          0., 3.90740447e-02, 2.31250688e-01 ]
      - [ 2.42713541e-01, 1.72790274e-01, 1.27008304e-01, 1.06602035e-01,
          1.30292559e-02, 0., 1.36457324e-01, 1.27357066e-01,
          1.45700172e-01, 1.35966077e-01, 9.42188948e-02, 7.01799318e-02,
          1.08913351e-02, 6.86617009e-03, 8.95605609e-03, 1.77423343e-01,
          1.82658911e-01, 9.64089707e-02, 0., 4.42443229e-03,
          1.42165180e-02, 0., 1.91541791e-01, 1.45578578e-01,
          1.28123447e-01, 1.36486143e-01, 0., 7.66334170e-03,
          7.03277290e-02, 1.26480594e-01, 1.97757989e-01, 2.04764292e-01,
          2.24389836e-01, 1.07344696e-02, 6.68126019e-03, 4.42443229e-03,
          9.97476131e-02, 6.62274882e-02, 1.49852425e-01, 2.15199590e-01,
          2.38060281e-01, 7.32151465e-03, 0., 1.12072445e-01,
          1.73584864e-01, 8.19521546e-02, 4.84685116e-02, 1.32663876e-01,
          2.06887051e-01, 1.07555516e-01, 1.26255020e-01, 1.32503569e-01,
          7.07864091e-02, 8.37566778e-02, 4.73472662e-02, 1.12412415e-01,
          2.84078509e-01, 1.35278091e-01, 1.63205221e-01, 7.14471284e-03,
          1.34359468e-02, 0., 1.02495709e-02, 1.58679754e-01 ]
      - [ 2.06399664e-01, 9.76968557e-02, 6.02167472e-03, 0.,
          6.31376803e-02, 1.73514988e-02, 4.47798930e-02, 2.67331511e-01,
          1.45870358e-01, 9.96658280e-02, 1.57580882e-01, 6.27137208e-03,
          5.81761934e-02, 5.50070368e-02, 6.02167472e-03, 2.29072973e-01,
          1.61038607e-01, 9.24916416e-02, 4.61380333e-02, 4.43452969e-03,
          1.73771247e-01, 1.27150387e-01, 1.39396667e-01, 1.82578325e-01,
          1.49859861e-01, 9.54456776e-02, 0., 0., 3.88862155e-02,
          1.46530867e-01, 1.29721954e-01, 2.31996000e-01, 1.54630944e-01,
          1.06022768e-01, 0., 5.63107012e-03, 1.09161912e-02, 0.,
          1.33894548e-01, 2.65355736e-01, 1.56411812e-01, 1.16666660e-01,
          0., 0., 2.13611256e-02, 1.55062690e-01, 9.67304260e-02,
          2.44200364e-01, 9.59448665e-02, 1.76294416e-01, 9.04362500e-02,
          1.12039261e-01, 8.63849744e-03, 1.23931020e-02, 2.16305293e-02,
          1.81239769e-01, 2.12706551e-01, 2.18602002e-01, 4.53848727e-02,
          4.43452969e-03, 1.38968397e-02, 0., 6.47999644e-02,
          2.11693317e-01 ]
      - [ 2.65589476e-01, 1.25748515e-01, 1.93748564e-01, 1.68133453e-01,
          1.62532609e-02, 0., 7.77599728e-03, 9.02243983e-03,
          1.64293125e-01, 1.32940248e-01, 1.61849767e-01, 9.99226868e-02,
          1.14271967e-02, 3.74668837e-02, 0., 6.71332981e-03,
          2.93751061e-01, 3.46380584e-02, 1.31649366e-02, 1.15851343e-01,
          9.58857462e-02, 8.29134881e-02, 1.38481930e-01, 1.33828804e-01,
          2.33236685e-01, 4.89434190e-02, 6.44603558e-03, 7.09848199e-03,
          7.55036529e-03, 1.33444175e-01, 1.39097095e-01, 1.90102980e-01,
          2.07674757e-01, 2.40260307e-02, 0., 1.20392516e-01,
          1.17913447e-01, 1.09857745e-01, 1.86106488e-01, 9.56367701e-02,
          2.69025356e-01, 2.61569545e-02, 0., 0., 6.06517959e-03,
          1.03141792e-01, 1.05536297e-01, 8.90850797e-02, 2.86350608e-01,
          9.07499865e-02, 6.64381832e-02, 0., 0., 0., 1.44733757e-01,
          1.03946850e-01, 2.85945833e-01, 2.03919917e-01, 0.,
          4.74704104e-03, 0., 0., 0., 0. ]
      - [ 2.03068510e-01, 1.52427435e-01, 2.02583391e-02, 6.04291353e-03,
          1.23107424e-02, 0., 1.32695928e-01, 2.04529777e-01,
          1.56463996e-01, 1.72353208e-01, 1.01912759e-01, 7.89444223e-02,
          9.70886741e-03, 8.00341927e-03, 5.51215187e-03, 2.81224549e-01,
          1.18263498e-01, 3.63055058e-02, 6.46208646e-03, 4.75886138e-03,
          1.12338319e-01, 7.06064552e-02, 8.45799893e-02, 1.31685182e-01,
          1.67522103e-01, 1.32094622e-01, 0., 1.13577746e-01,
          1.39376566e-01, 1.02446534e-01, 1.69441074e-01, 2.29785293e-01,
          1.31101804e-02, 0., 0., 0., 0., 1.00912213e-01, 1.40057638e-01,
          3.24855715e-01, 1.18778042e-01, 5.51215187e-03, 0., 0.,
          1.29490584e-01, 0., 8.48025754e-02, 3.23250443e-01,
          1.15470491e-01, 1.07466713e-01, 9.54415873e-02, 8.03323463e-02,
          0., 0., 2.42925882e-02, 1.70536965e-01, 1.42751336e-01,
          1.91690668e-01, 1.48728058e-01, 1.20880857e-01, 1.14871748e-01,
          0., 1.64391957e-02, 2.06311509e-01 ]
      - [ 2.44611591e-01, 1.45158947e-01, 1.93362042e-01, 1.22907154e-01,
          1.24666408e-01, 1.04855392e-02, 7.42903538e-03, 8.00958499e-02,
          1.41811922e-01, 1.06408015e-01, 1.36750609e-01, 1.30216792e-01,
          8.72786995e-03, 6.66466029e-03, 1.22808889e-02, 4.44324985e-02,
          3.10528010e-01, 4.89471257e-02, 8.32612738e-02, 8.29552934e-02,
          8.38721171e-02, 1.01371229e-01, 1.15491197e-01, 1.89702317e-01,
          2.16145024e-01, 2.23784223e-02, 1.58074331e-02, 0.,
          7.80910477e-02, 1.02546774e-01, 1.36893824e-01, 1.82774842e-01,
          1.74290523e-01, 2.68360358e-02, 0., 8.13613832e-02,
          1.54068619e-01, 1.60200313e-01, 1.43493056e-01, 1.23261109e-01,
          2.49574289e-01, 6.56441133e-03, 5.83667867e-03, 0.,
          9.39790457e-02, 3.46752144e-02, 1.07995689e-01, 8.96988511e-02,
          2.94062316e-01, 9.31348875e-02, 7.19117820e-02, 0.,
          4.90804203e-03, 0., 1.21129446e-01, 1.82726890e-01,
          2.62587130e-01, 2.17365578e-01, 0., 0., 4.90804203e-03, 0., 0.,
          0. ]
      - [ 2.19386324e-01, 2.09719568e-01, 1.26944646e-01, 1.55696481e-01,
          1.05618918e-02, 0., 5.59867779e-03, 1.10445246e-01,
          2.42668167e-01, 1.09384894e-01, 9.78549570e-02, 7.21339956e-02,
          1.18984645e-02, 0., 1.09391421e-01, 1.38909221e-01,
          2.73678035e-01, 6.46479614e-03, 0., 0., 1.03151478e-01, 0.,
          9.04549509e-02, 1.71539888e-01, 2.18077779e-01, 4.57130140e-03,
          0., 0., 1.52729571e-01, 1.21605836e-01, 1.54144630e-01,
          8.78972560e-02, 6.83568977e-03, 0., 0., 0., 1.57294482e-01,
          1.63978904e-01, 1.86395541e-01, 1.48610637e-01, 2.35659495e-01,
          1.02500077e-02, 0., 0., 7.06861392e-02, 9.46508199e-02,
          1.41659141e-01, 2.56607860e-01, 2.13182479e-01, 1.32479787e-01,
          1.31713316e-01, 6.83568977e-03, 4.83356277e-03, 0.,
          8.55212193e-03, 8.66819695e-02, 2.45716974e-01, 1.81956530e-01,
          1.26438946e-01, 1.52187869e-01, 5.31393252e-02, 0., 0.,
          1.01530924e-01 ]
      - [ 2.86444366e-01, 1.18852332e-01, 2.00363696e-01, 7.61316717e-02,
          9.87660978e-03, 5.51854772e-03, 3.13256159e-02, 1.06515981e-01,
          1.49815932e-01, 1.75885811e-01, 1.07353926e-01, 1.26269698e-01,
          1.43254967e-02, 0., 5.37508633e-03, 7.70226121e-02,
          2.41334662e-01, 0., 0., 8.67275894e-03, 1.05622843e-01,
          1.18827328e-01, 1.68415621e-01, 1.49638742e-01, 1.71688169e-01,
          0., 2.62004118e-02, 1.17662467e-01, 8.13146606e-02,
          1.06110319e-01, 1.87366515e-01, 1.56206280e-01, 2.38496795e-01,
          6.93920627e-03, 0., 1.01179937e-02, 9.10343826e-02,
          1.40097216e-01, 1.71577871e-01, 2.04590425e-01, 2.35518634e-01,
          1.18583180e-02, 0., 0., 6.78845420e-02, 9.79069173e-02,
          8.10579211e-02, 1.06190249e-01, 1.61853284e-01, 1.17972434e-01,
          1.35870442e-01, 6.17944784e-02, 0., 0., 0., 7.49366917e-03,
          3.03294569e-01, 1.84035778e-01, 7.90880695e-02, 1.17445223e-01,
          8.31794143e-02, 0., 1.36683598e-01, 1.57567397e-01 ]
      - [ 3.32695603e-01, 1.72910854e-01, 3.92014086e-02, 6.52776333e-03,
          7.85689801e-03, 0., 4.36537853e-03, 1.16603650e-01,
          2.65180945e-01, 7.52478242e-02, 6.58067465e-02, 1.06849141e-01,
          1.05911940e-02, 0., 5.34647470e-03, 1.11561930e-02,
          2.15337470e-01, 8.73075705e-03, 6.26785774e-03, 0.,
          1.06415801e-01, 5.70814572e-02, 1.07285902e-01, 1.19039156e-01,
          2.24827528e-01, 1.30123170e-02, 0., 8.36407170e-02,
          8.57530460e-02, 1.78186893e-01, 1.87759578e-01, 1.63162783e-01,
          1.83837458e-01, 1.61172803e-02, 0., 0., 0., 0., 1.73891082e-01,
          2.06660151e-01, 2.62375653e-01, 9.34347883e-03, 0., 0.,
          1.07483171e-01, 6.91792965e-02, 1.58201799e-01, 1.82032064e-01,
          2.08113372e-01, 1.28835663e-01, 1.08962923e-01, 1.08158454e-01,
          0., 0., 4.36537853e-03, 1.61078408e-01, 2.37035155e-01,
          1.84174791e-01, 1.56709775e-01, 1.33893296e-01, 0.,
          2.13882197e-02, 0., 1.17447406e-01 ]
      - [ 1.64617404e-01, 1.14979774e-01, 0., 9.28061642e-03,
          1.59041230e-02, 0., 9.65662207e-03, 2.37002850e-01,
          1.92582369e-01, 2.05782831e-01, 1.24181189e-01, 1.32970363e-01,
          3.99900414e-02, 0., 1.82490312e-02, 3.54074150e-01,
          1.65510267e-01, 1.33695612e-02, 5.74968532e-02, 5.20686880e-02,
          3.64532247e-02, 5.89090660e-02, 1.83494195e-01, 2.29462683e-01,
          1.17144018e-01, 8.22156966e-02, 7.90228993e-02, 5.74186165e-03,
          8.90412182e-02, 1.10761359e-01, 1.26908839e-01, 2.56483972e-01,
          9.60656404e-02, 5.62820099e-02, 0., 3.19776461e-02, 0., 0.,
          1.76101595e-01, 2.24085242e-01, 1.93366617e-01, 9.27439332e-02,
          0., 0., 4.60516401e-02, 9.55959857e-02, 1.28602073e-01,
          2.61398554e-01, 9.97034237e-02, 1.19504333e-01, 3.88418548e-02,
          0., 7.33623793e-03, 0., 1.69564970e-02, 2.14478448e-01,
          1.13228291e-01, 1.22812405e-01, 1.25113755e-01, 9.33963954e-02,
          0., 0., 5.40435836e-02, 2.13647157e-01 ]
      - [ 2.95874536e-01, 1.86691716e-01, 6.87763467e-03, 8.65643937e-03,
          1.20129483e-02, 4.10898663e-02, 7.75167495e-02, 1.43570751e-01,
          2.02556580e-01, 1.19430125e-01, 9.63779986e-02, 1.14657417e-01,
          1.28473416e-02, 0., 5.27541246e-03, 1.30553171e-01,
          2.51119941e-01, 6.09152112e-03, 6.18454861e-03, 0.,
          1.16427593e-01, 9.60105807e-02, 5.77440783e-02, 1.93268761e-01,
          2.00360626e-01, 9.13728215e-03, 0., 0., 7.24408077e-03,
          1.01968743e-01, 2.11619034e-01, 1.64539009e-01, 2.09460050e-01,
          9.63154063e-03, 0., 0., 8.87215044e-03, 1.29617676e-02,
          1.89185724e-01, 1.82773590e-01, 2.64391363e-01, 1.25579927e-02,
          0., 5.78337861e-03, 1.16856575e-01, 9.69014838e-02,
          1.33646011e-01, 1.46451190e-01, 2.14446634e-01, 1.12680197e-01,
          1.29586384e-01, 1.26870573e-01, 1.14538968e-02, 0.,
          4.30735620e-03, 8.48476738e-02, 3.02223027e-01, 1.77659690e-01,
          9.94313285e-02, 7.42335245e-02, 3.62204039e-03, 5.51848970e-02,
          8.81720334e-02, 1.04975261e-01 ]
      - [ 3.17812920e-01, 1.84444830e-01, 2.76230797e-02, 0.,
          8.85805674e-03, 0., 1.38589427e-01, 1.06604666e-01,
          1.87094763e-01, 1.45410061e-01, 1.00073367e-01, 1.14885069e-01,
          9.56779532e-03, 0., 8.10222887e-03, 5.60874566e-02,
          2.07786500e-01, 5.26703196e-03, 7.64751481e-03, 0.,
          1.16530426e-01, 9.59050879e-02, 5.75067662e-02, 1.85899854e-01,
          2.06338748e-01, 1.19108176e-02, 0., 7.34302588e-03,
          8.08626227e-03, 1.02444321e-01, 2.10952953e-01, 2.15817541e-01,
          2.08815098e-01, 0., 9.15079471e-03, 6.43076794e-03,
          1.02284029e-02, 1.25488760e-02, 1.84220627e-01, 1.86976746e-01,
          2.63972521e-01, 1.25380447e-02, 0., 0., 1.16982371e-01,
          9.67731550e-02, 5.96447699e-02, 1.83098242e-01, 1.59036636e-01,
          1.12504035e-01, 1.29316747e-01, 1.26759052e-01, 1.14357024e-02,
          0., 1.08669177e-02, 1.29557118e-01, 2.85141945e-01,
          1.77183330e-01, 9.93768573e-02, 7.41156042e-02, 0.,
          4.40693982e-02, 1.31269813e-01, 1.57181367e-01 ]
      - [ 2.74183393e-01, 1.99942112e-01, 2.66363882e-02, 0.,
          7.21845496e-03, 5.53453080e-02, 8.79419968e-02, 7.01925829e-02,
          2.04045117e-01, 1.69128075e-01, 1.01426713e-01, 1.15448885e-01,
          1.09248627e-02, 5.39705390e-03, 5.25675062e-03, 1.50986746e-01,
          2.22181842e-01, 1.13558797e-02, 0., 0., 1.16202325e-01,
          9.56788138e-02, 1.32094264e-01, 1.37997821e-01, 2.14180470e-01,
          7.63258711e-03, 0., 0., 7.21845496e-03, 1.01159059e-01,
          2.07281798e-01, 2.03930333e-01, 1.58097744e-01, 1.28864916e-02,
          0., 0., 1.14834169e-02, 0., 1.89122558e-01, 2.30199501e-01,
          2.22245440e-01, 1.01111149e-02, 7.04297703e-03, 7.67984986e-03,
          1.16529040e-01, 1.07807837e-01, 1.23832263e-01, 2.00041279e-01,
          2.11663604e-01, 1.13061689e-01, 1.29320249e-01, 1.26711726e-01,
          1.14133796e-02, 0., 4.29211883e-03, 1.17067896e-01,
          2.90399194e-01, 1.77143216e-01, 9.93882045e-02, 7.40945563e-02,
          0., 5.51876128e-02, 8.77391696e-02, 1.08951926e-01 ]
      - [ 3.09249640e-01, 1.74994543e-01, 1.43564954e-01, 7.95353055e-02,
          1.05125885e-02, 0., 5.50232781e-03, 1.16971076e-01,
          2.31889665e-01, 9.41585302e-02, 6.32547215e-02, 1.05698943e-01,
          1.11102071e-02, 0., 6.91881124e-03, 4.27843891e-02,
          2.34635025e-01, 9.28255916e-03, 5.50232781e-03, 0.,
          1.16360066e-02, 1.24879256e-01, 1.11196600e-01, 1.38272196e-01,
          2.28438810e-01, 0., 1.08822659e-02, 0., 7.81836510e-02,
          1.37723386e-01, 1.75598159e-01, 2.07351223e-01, 2.02267274e-01,
          9.99776926e-03, 1.71953067e-02, 0., 0., 0., 2.23456040e-01,
          2.31965542e-01, 2.11053759e-01, 8.18644743e-03, 7.63127161e-03,
          0., 1.05779983e-01, 6.68816343e-02, 1.07210949e-01,
          1.55124724e-01, 1.27013981e-01, 1.80483446e-01, 8.78672227e-02,
          1.01537667e-01, 0., 0., 0., 1.60940468e-01, 2.89245665e-01,
          1.65830374e-01, 1.04356535e-01, 0., 0., 2.57035922e-02,
          1.39888108e-01, 1.53986782e-01 ]
      - [ 3.28119874e-01, 1.41684040e-01, 1.23144299e-01, 6.45339303e-03,
          9.60145611e-03, 6.89086830e-03, 1.38526931e-01, 1.06661856e-01,
          1.85197055e-01, 1.73656404e-01, 6.14108928e-02, 1.00455947e-01,
          8.88922159e-03, 8.11471138e-03, 6.89086830e-03, 0.,
          2.58606702e-01, 1.14759356e-02, 0., 0., 5.31898476e-02,
          1.25024617e-01, 1.14916518e-01, 1.12682581e-01, 2.27488294e-01,
          1.53631587e-02, 0., 0., 7.44787306e-02, 1.49782807e-01,
          1.84865117e-01, 1.52025208e-01, 2.53143251e-01, 4.31564404e-03,
          0., 4.56323801e-03, 1.08870286e-02, 0., 1.89849451e-01,
          1.51204854e-01, 2.83174187e-01, 1.28201181e-02, 0.,
          5.79450652e-03, 1.17644869e-01, 9.70879197e-02, 6.38839602e-02,
          1.16863333e-01, 1.65228963e-01, 1.68228060e-01, 8.68205279e-02,
          1.06413066e-01, 6.09416291e-02, 0., 0., 5.79450652e-03,
          3.14005166e-01, 1.80557013e-01, 9.70686302e-02, 7.50718415e-02,
          0., 4.03721184e-02, 1.31797597e-01, 1.05869301e-01 ]
      - [ 3.14808309e-01, 2.01910794e-01, 2.78105438e-02, 0.,
          8.91817175e-03, 0., 1.39408395e-01, 1.07501753e-01,
          1.88072100e-01, 1.46710709e-01, 1.00623354e-01, 1.15664735e-01,
          9.63272620e-03, 0., 8.15721508e-03, 1.41165098e-02,
          2.09481582e-01, 5.30277658e-03, 7.69941462e-03, 0.,
          9.63272620e-03, 1.41038626e-01, 1.07780613e-01, 1.95673972e-01,
          1.63767859e-01, 1.19916499e-02, 0., 7.39285909e-03,
          8.14113952e-03, 1.01755776e-01, 2.13413894e-01, 2.16921046e-01,
          2.40695402e-01, 0., 0., 6.47441018e-03, 1.02978181e-02,
          1.22581795e-02, 1.90112412e-01, 1.64118946e-01, 2.78055340e-01,
          1.29890973e-02, 0., 5.81337791e-03, 1.17632709e-01,
          9.73484740e-02, 5.99714518e-02, 1.42794847e-01, 1.52926087e-01,
          1.78190693e-01, 1.02489777e-01, 5.30720465e-02, 9.85148028e-02,
          0., 6.12311903e-03, 1.43247217e-01, 2.80932128e-01,
          1.78805560e-01, 1.00742318e-01, 7.46727660e-02, 4.57809959e-03,
          4.11918983e-02, 1.32285699e-01, 1.13757133e-01 ]
      - [ 2.88487405e-01, 1.95686489e-01, 1.11216776e-01, 8.06221291e-02,
          1.03837289e-02, 7.76364841e-03, 2.35920195e-02, 1.16767652e-01,
          1.99202135e-01, 1.56905472e-01, 6.96751699e-02, 1.05415992e-01,
          1.36900395e-02, 0., 8.38940125e-03, 1.16702847e-01,
          2.01944500e-01, 1.11959875e-02, 1.05638960e-02, 0.,
          1.13636255e-02, 1.24188319e-01, 1.68760747e-01, 1.72984257e-01,
          1.65035814e-01, 0., 9.37358197e-03, 0., 7.86848590e-02,
          1.37741521e-01, 1.75399691e-01, 2.37640217e-01, 2.21658722e-01,
          1.28922258e-02, 1.09794568e-02, 0., 0., 0., 2.22912565e-01,
          2.09873497e-01, 2.31980696e-01, 7.56182242e-03, 0., 0.,
          1.05863646e-01, 6.60147667e-02, 1.06406383e-01, 1.25663802e-01,
          7.43643790e-02, 1.79416373e-01, 8.73917714e-02, 1.01628318e-01,
          0., 0., 0., 1.60885811e-01, 2.88291782e-01, 1.65410444e-01,
          1.03334151e-01, 0., 3.67120258e-03, 2.31476538e-02,
          1.15846798e-01, 2.00022846e-01 ]
      - [ 2.88516879e-01, 1.95729449e-01, 1.11268885e-01, 8.13314021e-02,
          9.71764047e-03, 7.76728615e-03, 1.24068916e-01, 1.16743915e-01,
          1.61639377e-01, 1.55327737e-01, 6.97078183e-02, 1.05465390e-01,
          1.36964535e-02, 0., 1.00306226e-02, 1.16643466e-01,
          2.42971048e-01, 1.15855811e-02, 5.49230073e-03, 0.,
          1.16148023e-02, 1.24293953e-01, 1.14084579e-01, 2.08222464e-01,
          1.66012466e-01, 0., 1.24621280e-02, 0., 7.88531899e-02,
          1.37982428e-01, 1.75589755e-01, 1.95809975e-01, 2.27841005e-01,
          9.97954980e-03, 1.09846015e-02, 0., 0., 0., 2.23017007e-01,
          1.74690694e-01, 2.59658515e-01, 7.56536564e-03, 0., 0.,
          1.05913252e-01, 6.60457015e-02, 1.06456243e-01, 1.14342861e-01,
          1.38049975e-01, 1.71523929e-01, 8.74815956e-02, 1.01587310e-01,
          0., 0., 0., 1.56045809e-01, 2.91284412e-01, 1.65489972e-01,
          1.03382565e-01, 0., 0., 2.31199414e-02, 1.16034798e-01,
          1.71087354e-01 ]
      - [ 3.37007403e-01, 1.40204832e-01, 0., 0., 1.62036307e-02, 0.,
          7.99321476e-03, 2.24560108e-02, 2.69468963e-01, 1.44227758e-01,
          1.10669002e-01, 9.91609395e-02, 9.80470702e-03, 0.,
          3.00344802e-03, 0., 2.27376670e-01, 0., 6.78208843e-03, 0.,
          1.18995443e-01, 8.77750963e-02, 1.73248008e-01, 1.02912232e-01,
          1.96753353e-01, 2.03438494e-02, 9.52139217e-03, 8.06530751e-03,
          7.15509579e-02, 1.51153445e-01, 1.88443139e-01, 1.77151397e-01,
          1.37162000e-01, 8.11298788e-02, 5.17333671e-02, 0.,
          9.44988709e-03, 0., 1.41815245e-01, 1.48077250e-01,
          3.00942242e-01, 1.30826505e-02, 0., 0., 1.14526473e-01,
          1.08228698e-01, 1.86969951e-01, 1.84175119e-01, 2.24169403e-01,
          1.19137578e-01, 1.06771074e-01, 1.21114068e-01, 8.74889549e-03,
          0., 0., 0., 2.93515146e-01, 2.04792619e-01, 1.23256400e-01, 0.,
          6.18640333e-03, 1.20604485e-02, 3.71914059e-02, 1.09053537e-01 ]
      - [ 3.04364949e-01, 1.13059714e-01, 1.82080016e-01, 1.01055294e-01,
          1.33404443e-02, 5.49853826e-03, 5.35559701e-03, 7.47354105e-02,
          2.17133343e-01, 1.26013309e-01, 1.20335832e-01, 1.40175074e-01,
          1.28069809e-02, 6.98217284e-03, 6.18411042e-03, 0.,
          2.33621016e-01, 2.01613642e-02, 5.49853826e-03, 0.,
          1.17182694e-01, 9.68174115e-02, 1.73619196e-01, 1.27635881e-01,
          1.65888339e-01, 7.57395802e-03, 6.98217284e-03, 8.77961796e-03,
          1.92901894e-01, 1.50860563e-01, 1.53581560e-01, 1.07335284e-01,
          2.61285245e-01, 1.53666679e-02, 0., 6.91404613e-03,
          1.35541022e-01, 9.48819220e-02, 1.74215212e-01, 1.35002121e-01,
          2.80846328e-01, 1.91956442e-02, 0., 5.87128429e-03,
          7.51686841e-02, 9.87909362e-02, 7.80627877e-02, 3.06859948e-02,
          1.79591984e-01, 1.10401489e-01, 1.27273411e-01, 7.01999813e-02,
          0., 0., 3.09205544e-03, 8.78801476e-03, 2.90754437e-01,
          1.62285745e-01, 4.47075181e-02, 1.77720338e-01, 1.17148839e-01,
          0., 1.41500369e-01, 1.02772057e-01 ]
      - [ 2.98372269e-01, 1.76923409e-01, 0., 0., 6.35787053e-03,
          3.16299163e-02, 1.56700328e-01, 9.98960435e-02, 1.77917153e-01,
          1.73906103e-01, 8.20241570e-02, 1.12147354e-01, 1.13621261e-02,
          0., 0., 1.49068251e-01, 1.81523174e-01, 1.07646771e-02,
          5.48900384e-03, 8.77277646e-03, 1.12623468e-01, 6.98085576e-02,
          7.92654902e-02, 9.99798253e-02, 2.19039738e-01, 8.22418183e-03,
          0., 1.17147177e-01, 1.15506597e-01, 1.96222141e-01,
          1.80050313e-01, 1.54163465e-01, 2.13933080e-01, 9.97355953e-03,
          0., 0., 7.34143611e-03, 0., 1.91244289e-01, 1.93265259e-01,
          2.62033045e-01, 7.56082451e-03, 0., 0., 1.12303548e-01,
          9.01844054e-02, 1.71099111e-01, 1.32475838e-01, 2.00179115e-01,
          1.05761677e-01, 1.40709549e-01, 1.14426397e-01, 0., 0.,
          5.34631032e-03, 1.10893577e-01, 2.40959704e-01, 1.69099987e-01,
          1.62826180e-01, 1.83402911e-01, 0., 0., 0., 6.57151267e-02 ]
      - [ 2.00950757e-01, 1.71639889e-01, 9.05756801e-02, 1.00547643e-02,
          1.96191054e-02, 7.40460958e-03, 7.21211731e-03, 2.66626447e-01,
          1.32812381e-01, 2.22395256e-01, 1.38924196e-01, 1.11407377e-01,
          8.57670140e-03, 7.40460958e-03, 1.10931478e-01, 3.30984622e-01,
          1.29939228e-01, 1.68035533e-02, 7.47040063e-02, 0.,
          1.31011279e-02, 1.61463276e-01, 1.15106419e-01, 2.23226815e-01,
          1.61074158e-02, 8.75130817e-02, 0., 1.67023584e-01,
          1.00210331e-01, 1.31722361e-01, 9.85525325e-02, 2.51715511e-01,
          0., 0., 0., 0., 0., 1.65270016e-01, 9.42511335e-02,
          3.00013572e-01, 1.30363882e-01, 1.11131417e-02, 7.40460958e-03,
          5.73387221e-02, 1.08117655e-01, 1.06748708e-01, 9.51665491e-02,
          2.64962822e-01, 1.21292872e-02, 9.31080338e-03, 0.,
          7.90656824e-03, 0., 7.17889294e-02, 4.98246625e-02,
          1.80653110e-01, 1.13881499e-01, 8.60122964e-02, 9.25402343e-02,
          1.02651298e-01, 7.95546081e-03, 6.45270720e-02, 9.06015933e-02,
          1.99102119e-01 ]
      - [ 2.80620635e-01, 1.19020894e-01, 1.99787050e-01, 7.51001090e-02,
          8.68499465e-03, 0., 3.27242129e-02, 1.05880760e-01,
          1.83560893e-01, 1.08876340e-01, 1.40376776e-01, 1.33766472e-01,
          9.00500175e-03, 0., 6.91250805e-03, 8.49418640e-02,
          2.49269634e-01, 4.37185401e-03, 6.27715560e-03, 8.63939058e-03,
          1.06197223e-01, 1.22182824e-01, 1.68762639e-01, 1.49715111e-01,
          1.70429811e-01, 1.94217544e-02, 5.49731543e-03, 0.,
          1.16055094e-01, 1.37614548e-01, 1.77591309e-01, 1.64746672e-01,
          2.24718451e-01, 5.35440585e-03, 0., 0., 8.26176181e-02,
          1.45273045e-01, 1.71562240e-01, 1.94677770e-01, 2.42022306e-01,
          1.18126944e-02, 0., 0., 6.73071370e-02, 9.64907631e-02,
          7.87326768e-02, 1.31090149e-01, 1.68981597e-01, 1.10564947e-01,
          1.43055201e-01, 6.49524108e-02, 0., 0., 5.49731543e-03,
          7.46483775e-03, 3.13651562e-01, 1.83649153e-01, 1.18354805e-01,
          1.24727478e-02, 0., 4.42345031e-02, 1.36111662e-01,
          1.57299146e-01 ]
      - [ 2.88909614e-01, 1.19245656e-01, 2.00665459e-01, 7.58399293e-02,
          6.38914714e-03, 5.51600661e-03, 6.32834714e-03, 5.88993635e-03,
          2.12508887e-01, 1.09244294e-01, 1.40322536e-01, 1.33884609e-01,
          9.46308579e-03, 0., 6.93601090e-03, 4.93831411e-02,
          2.44155467e-01, 5.37261087e-03, 6.29849778e-03, 9.11719725e-03,
          1.05761781e-01, 1.23046651e-01, 1.71553180e-01, 1.83465183e-01,
          1.25044703e-01, 2.10405607e-02, 0., 8.27717483e-02,
          1.16102502e-01, 1.20227516e-01, 1.67209640e-01, 1.67720690e-01,
          2.38036379e-01, 8.77343677e-03, 0., 0., 9.06977430e-02,
          1.34219259e-01, 1.76464513e-01, 1.95391476e-01, 2.43085876e-01,
          1.18528577e-02, 0., 0., 6.76189214e-02, 9.72007737e-02,
          8.03797990e-02, 1.06829427e-01, 1.65637642e-01, 1.11663014e-01,
          1.42222077e-01, 6.37148619e-02, 0., 0., 3.10187833e-03, 0.,
          3.15820664e-01, 1.72964603e-01, 7.89148733e-02, 9.50255394e-02,
          7.04444572e-02, 1.61233582e-02, 1.22201689e-01, 1.73299387e-01 ]
      - [ 2.75766313e-01, 1.19246617e-01, 1.92342013e-01, 9.77441445e-02,
          5.20890020e-03, 0., 9.95197333e-03, 0., 2.12399766e-01,
          1.09385692e-01, 1.40749633e-01, 1.33825928e-01, 9.44890641e-03,
          0., 6.92561781e-03, 8.56664106e-02, 2.42537782e-01,
          1.76323038e-02, 6.28906023e-03, 4.63144016e-03, 1.05875015e-01,
          1.21631913e-01, 1.71795309e-01, 1.83569983e-01, 1.25303969e-01,
          1.90153662e-02, 0., 8.27727467e-02, 1.17983505e-01,
          1.19603254e-01, 1.67409524e-01, 1.68323398e-01, 2.34114543e-01,
          0., 0., 0., 1.37341887e-01, 1.23483181e-01, 1.80254996e-01,
          1.87636510e-01, 2.37235367e-01, 1.23369610e-02, 0., 0.,
          6.71922117e-02, 9.64929014e-02, 7.06645846e-02, 1.19854406e-01,
          1.66312814e-01, 1.13563195e-01, 1.36592016e-01, 6.29003122e-02,
          0., 0., 0., 0., 3.09897721e-01, 1.73441067e-01, 8.06159154e-02,
          1.16740629e-01, 8.30169320e-02, 2.13005114e-02, 1.08476378e-01,
          1.73515037e-01 ]
      - [ 3.07961404e-01, 1.70993209e-01, 3.92449833e-02, 9.87176225e-03,
          1.33738248e-02, 0., 1.38617977e-01, 1.01800941e-01,
          1.80094093e-01, 1.79621339e-01, 7.36087039e-02, 1.06852248e-01,
          9.67147667e-03, 0., 1.12205101e-02, 1.23046495e-01,
          1.83431506e-01, 7.59130204e-03, 0., 4.59651602e-03,
          1.06406942e-01, 5.64208850e-02, 9.66079533e-02, 1.92267746e-01,
          1.73072502e-01, 9.87692922e-03, 0., 8.23091567e-02,
          8.52034688e-02, 1.77879825e-01, 1.77572832e-01, 2.05084026e-01,
          1.84021547e-01, 7.13322219e-03, 0., 8.72799754e-03, 0., 0.,
          1.73850253e-01, 2.39964753e-01, 2.30161190e-01, 7.52942590e-03,
          5.46620926e-03, 0., 1.07034147e-01, 6.82251751e-02,
          1.47938892e-01, 1.90051004e-01, 1.67060241e-01, 1.09391227e-01,
          1.27517045e-01, 1.08267479e-01, 0., 0., 4.34711622e-03,
          1.42914817e-01, 2.59265929e-01, 1.66415989e-01, 1.56002700e-01,
          1.33521810e-01, 0., 2.10829619e-02, 0., 1.70244679e-01 ]
      - [ 2.84138829e-01, 1.18739128e-01, 1.91763714e-01, 9.75272134e-02,
          7.35014770e-03, 0., 3.27135101e-02, 1.05846129e-01,
          1.83313534e-01, 1.08212985e-01, 1.39798433e-01, 1.33348972e-01,
          9.00205597e-03, 0., 8.17631464e-03, 4.91997078e-02,
          2.49230191e-01, 4.37042397e-03, 6.27510203e-03, 8.63656495e-03,
          1.05841473e-01, 1.22675233e-01, 1.68460414e-01, 1.49514169e-01,
          1.70506239e-01, 2.13701669e-02, 5.49551751e-03, 0.,
          1.16017133e-01, 1.37887463e-01, 1.68509379e-01, 1.73710272e-01,
          2.37355620e-01, 0., 0., 0., 1.37037069e-01, 1.23143777e-01,
          1.71234220e-01, 2.04033881e-01, 2.29001254e-01, 1.18088303e-02,
          0., 0., 6.73079342e-02, 9.69357640e-02, 7.08969161e-02,
          1.12735510e-01, 1.68511271e-01, 1.10369250e-01, 1.42239586e-01,
          6.43404201e-02, 0., 0., 5.49551751e-03, 7.46239629e-03,
          3.19340587e-01, 1.72429785e-01, 1.18048862e-01, 1.24686677e-02,
          0., 4.42200340e-02, 1.36067152e-01, 1.57247707e-01 ]
      - [ 8.27288479e-02, 1.15072586e-01, 2.30357319e-01, 5.11130765e-02,
          1.58490166e-02, 0., 4.44246037e-03, 9.39465966e-03,
          1.13075310e-02, 9.41590071e-02, 1.27567694e-01, 1.35190964e-01,
          7.39161372e-02, 1.00743122e-01, 8.54527503e-02, 6.64411187e-02,
          1.45804957e-01, 4.47514467e-02, 1.12116858e-01, 6.64302753e-03,
          1.29406676e-02, 0., 0., 0., 0., 0., 0., 0., 9.15043335e-03,
          2.39517763e-02, 8.88492074e-03, 8.66782442e-02, 2.98925608e-01,
          4.16153781e-02, 0., 2.33750597e-01, 1.90700009e-01,
          1.38364792e-01, 2.16056868e-01, 1.57900676e-01, 3.33908856e-01,
          7.22679049e-02, 0., 6.64302753e-03, 2.03257844e-01,
          1.75073847e-01, 8.28470960e-02, 1.35123536e-01, 2.68312544e-01,
          0., 9.81372595e-02, 2.65980214e-02, 0., 0., 4.19221222e-02,
          2.20613837e-01, 2.60138065e-01, 2.37440050e-01, 1.03782289e-01,
          6.64302753e-03, 0., 7.24143684e-02, 9.35117975e-02,
          2.00997755e-01 ]
      - [ 4.67757098e-02, 1.71490505e-01, 1.67304367e-01, 1.12554871e-01,
          2.21965443e-02, 8.95324629e-03, 1.34742958e-02, 0.,
          1.46660656e-02, 4.63010781e-02, 1.50829151e-01, 1.40022397e-01,
          1.53599055e-02, 1.19269401e-01, 5.21812215e-02, 8.62100199e-02,
          1.03246301e-01, 7.72717670e-02, 7.59489462e-02, 5.34037538e-02,
          5.91965728e-02, 4.05427143e-02, 6.33796304e-02, 5.07684462e-02,
          1.99471246e-02, 8.78601223e-02, 5.40370792e-02, 1.82050727e-02,
          6.01903722e-02, 7.31164441e-02, 2.37038843e-02, 1.00647680e-01,
          2.82950789e-01, 8.73115808e-02, 0., 1.87463850e-01,
          1.63451284e-01, 1.58117399e-01, 2.46250778e-01, 1.71039730e-01,
          2.86581576e-01, 8.52550045e-02, 0., 0., 1.15070827e-01,
          1.03643872e-01, 2.10498914e-01, 6.44199550e-02, 3.17841023e-01,
          1.01817258e-01, 8.27641860e-02, 0., 7.52875255e-03, 0.,
          3.30881402e-02, 7.52875255e-03, 4.11753356e-01, 1.12689719e-01,
          0., 7.15032890e-02, 1.00482047e-01, 0., 6.79249465e-02,
          2.04562351e-01 ]
      - [ 2.91753501e-01, 1.35516822e-01, 1.90582633e-01, 8.84207785e-02,
          8.89595076e-02, 0., 0., 0., 2.21280575e-01, 1.26561105e-01,
          1.84696823e-01, 0., 1.38464086e-02, 5.84475463e-03, 0.,
          3.42329927e-02, 2.49887243e-01, 2.40688678e-02, 8.96701217e-02,
          1.96670070e-02, 3.95558812e-02, 1.94940120e-02, 1.47316188e-01,
          1.05973750e-01, 2.46593222e-01, 5.26920110e-02, 6.92132488e-02,
          4.33150195e-02, 7.63577744e-02, 8.19995031e-02, 1.28249899e-01,
          1.64610416e-01, 1.93810865e-01, 3.28674703e-03, 2.12945156e-02,
          1.59096029e-02, 1.23963103e-01, 1.38312936e-01, 1.83330581e-01,
          1.22828029e-01, 2.65300065e-01, 1.88855361e-02, 0.,
          3.82804126e-02, 3.90862301e-03, 1.30025610e-01, 1.65535092e-01,
          1.07618995e-01, 3.11753243e-01, 1.17041662e-01, 7.65744150e-02,
          0., 0., 0., 1.27018139e-01, 1.20946616e-01, 2.55399376e-01,
          1.90246850e-01, 8.06453228e-02, 7.31662810e-02, 0., 0.,
          3.01618837e-02, 0. ]
      - [ 1.79574311e-01, 1.89588100e-01, 1.53774172e-01, 1.63426891e-01,
          1.65287685e-02, 6.97701471e-03, 1.74181275e-02, 9.48279258e-03,
          1.70637682e-01, 5.59524447e-02, 9.05415118e-02, 1.34014085e-01,
          5.92425391e-02, 0., 1.36608137e-02, 1.50812268e-02,
          2.88027316e-01, 1.42430328e-02, 8.56786296e-02, 6.60150647e-02,
          1.31969061e-02, 0., 1.76539347e-02, 8.95295814e-02,
          2.80208409e-01, 5.39820008e-02, 7.94127360e-02, 5.86694665e-03,
          9.35066566e-02, 5.68539239e-02, 1.29633665e-01, 1.65153861e-01,
          1.16288058e-01, 6.43711612e-02, 0., 1.32833362e-01,
          2.02540219e-01, 1.27970845e-01, 7.62722045e-02, 1.85571864e-01,
          1.86979711e-01, 1.25073455e-02, 0., 5.86694665e-03,
          1.12859048e-01, 1.21539369e-01, 9.83736813e-02, 1.22673079e-01,
          3.55427951e-01, 9.93189290e-02, 0., 0., 0., 0., 5.54861547e-03,
          1.43972829e-01, 3.86246085e-01, 1.06936336e-01, 1.05606303e-01,
          0., 8.58166590e-02, 0., 7.05252737e-02, 9.90069732e-02 ]
      - [ 2.33943284e-01, 1.37640521e-01, 2.10549280e-01, 1.19594797e-01,
          1.20772831e-02, 7.50524038e-03, 3.19236368e-02, 7.01840175e-03,
          2.03253478e-01, 1.14380792e-01, 1.05540745e-01, 9.87046957e-02,
          1.28760412e-02, 6.57283003e-03, 7.39234779e-03, 0.,
          2.36257374e-01, 8.73477682e-02, 1.21787272e-01, 4.04063538e-02,
          1.49379726e-02, 0., 3.69617390e-03, 1.02065355e-01,
          2.45582923e-01, 9.93925482e-02, 6.90674186e-02, 6.90655187e-02,
          1.55712422e-02, 7.17797503e-02, 1.56327665e-01, 1.79627463e-01,
          2.12492481e-01, 7.39234779e-03, 0., 1.72608748e-01,
          1.44458041e-01, 9.54730287e-02, 1.46388784e-01, 1.82766974e-01,
          2.05238640e-01, 5.44251390e-02, 0., 5.52706886e-03,
          1.20774195e-01, 1.22035198e-01, 1.18276879e-01, 4.42143232e-02,
          2.88823813e-01, 1.27037629e-01, 7.85683617e-02, 2.89376117e-02,
          0., 0., 5.22717927e-03, 1.92432284e-01, 3.08876395e-01,
          1.13431998e-01, 1.71672806e-01, 9.32312086e-02, 0., 0.,
          4.22180966e-02, 1.27613977e-01 ]
      - [ 2.50978857e-01, 1.31071508e-01, 2.04337671e-01, 1.39072925e-01,
          6.78171776e-03, 0., 7.36218225e-03, 0., 2.20641658e-01,
          1.25459895e-01, 1.06776528e-01, 1.07579581e-01, 5.53724915e-03,
          8.28011893e-03, 3.19771096e-02, 9.35143232e-03, 2.42679507e-01,
          5.46336100e-02, 7.62013569e-02, 0., 1.03592444e-02, 0.,
          1.00865476e-02, 4.92338836e-03, 2.76935369e-01, 8.61312225e-02,
          6.79943562e-02, 5.29350489e-02, 5.49376383e-02, 7.50092268e-02,
          7.62339234e-02, 1.55844197e-01, 2.14440525e-01, 7.53044933e-02,
          5.85492840e-03, 1.21473119e-01, 2.18840927e-01, 1.26825944e-01,
          1.10544570e-01, 2.09247753e-01, 2.18011618e-01, 1.86622441e-02,
          0., 7.28936493e-02, 1.16751723e-01, 1.29356474e-01,
          1.31425351e-01, 6.36988953e-02, 2.68313348e-01, 1.20968565e-01,
          1.32550418e-01, 0., 0., 0., 0., 0., 3.56201321e-01,
          1.19174778e-01, 4.38209847e-02, 0., 0., 0., 8.22501928e-02,
          1.62956730e-01 ]
      - [ 2.17829317e-01, 1.42524332e-01, 1.65961385e-01, 1.60893574e-01,
          2.13757046e-02, 1.12308152e-02, 1.42211495e-02, 0.,
          1.45932645e-01, 1.08242244e-01, 1.32555917e-01, 9.79886875e-02,
          4.27015573e-02, 6.95479056e-03, 2.08959375e-02, 5.84825873e-03,
          2.84495890e-01, 8.93236920e-02, 1.22836322e-01, 5.49285151e-02,
          1.47978440e-02, 8.83135572e-03, 4.64037061e-02, 1.14654325e-01,
          2.56462872e-01, 7.45522007e-02, 8.49524662e-02, 9.17327702e-02,
          1.28058614e-02, 6.29073530e-02, 1.25168860e-01, 1.68008283e-01,
          1.14655480e-01, 6.71794340e-02, 0., 1.37977019e-01,
          1.68656692e-01, 1.21343702e-01, 1.25608176e-01, 2.18573824e-01,
          1.26568139e-01, 5.65212518e-02, 0., 1.11081218e-02,
          1.32033914e-01, 9.73231420e-02, 9.43928957e-02, 1.22505859e-01,
          3.49695086e-01, 9.76019949e-02, 0., 0., 0., 0., 3.91096622e-03,
          1.42930031e-01, 3.83077800e-01, 1.30622551e-01, 1.02230012e-01,
          8.65945518e-02, 0., 0., 0., 1.01495244e-01 ]
      - [ 2.45009527e-01, 1.20780207e-01, 2.00000435e-01, 1.42726794e-01,
          8.50062352e-03, 0., 7.93558452e-03, 9.08556208e-03,
          2.21725374e-01, 1.18946716e-01, 1.07869908e-01, 1.14799947e-01,
          2.87422352e-02, 5.68470964e-03, 7.14814384e-03, 5.23567833e-02,
          2.24371627e-01, 1.08073644e-01, 9.80135649e-02, 7.63391927e-02,
          1.62387323e-02, 0., 1.01699643e-01, 1.02435447e-01,
          2.46932477e-01, 7.79219121e-02, 4.64313254e-02, 7.44548440e-02,
          6.06364571e-02, 8.44686404e-02, 1.12827301e-01, 1.82899505e-01,
          2.23909035e-01, 3.24097499e-02, 4.18752581e-02, 1.48408592e-01,
          1.70861855e-01, 1.03772424e-01, 1.34320498e-01, 1.85328200e-01,
          2.25174889e-01, 3.45339179e-02, 0., 4.21384051e-02,
          7.09644035e-02, 1.82669714e-01, 8.13771561e-02, 0.,
          3.20080131e-01, 8.58117342e-02, 8.69934559e-02, 7.46187642e-02,
          0., 0., 0., 0., 3.42367649e-01, 1.27596304e-01, 1.42334402e-01,
          0., 0., 0., 0., 0. ]
      - [ 2.69574434e-01, 1.66772470e-01, 8.36060941e-02, 7.81619251e-02,
          1.13318227e-02, 4.94878925e-02, 7.05186203e-02, 6.65453672e-02,
          1.28600776e-01, 8.31987336e-02, 0., 8.83958023e-03,
          5.63312992e-02, 8.13333131e-03, 4.33139615e-02, 6.75101951e-02,
          2.61503309e-01, 3.02999243e-02, 0., 5.72173996e-03,
          8.14180076e-03, 0., 5.88847548e-02, 7.43681937e-02,
          1.22775517e-01, 4.74886410e-02, 5.07660545e-02, 9.92177427e-03,
          5.78137785e-02, 9.59414616e-02, 1.31442055e-01, 1.63056523e-01,
          2.19903871e-01, 2.56824233e-02, 1.23263173e-01, 1.30659655e-01,
          9.47947279e-02, 1.85528889e-01, 1.51882499e-01, 1.54175058e-01,
          2.75310636e-01, 1.11617960e-01, 1.50026396e-01, 9.40677896e-02,
          6.86058104e-02, 1.04973488e-01, 1.56326234e-01, 8.61041322e-02,
          3.17409396e-01, 8.19077566e-02, 9.84695554e-02, 7.52546117e-02,
          1.14930943e-01, 8.36448744e-02, 1.33325607e-01, 1.28504649e-01,
          3.90355378e-01, 1.14558190e-01, 0., 0., 6.98669925e-02, 0., 0.,
          0. ]
      - [ 2.69110829e-01, 1.14637233e-01, 1.39410779e-01, 7.82005414e-02,
          1.16196005e-02, 4.88666408e-02, 7.04060197e-02, 3.19324844e-02,
          1.44537359e-01, 8.59977305e-02, 0., 7.25332648e-03,
          5.62693216e-02, 7.55409570e-03, 3.79338376e-02, 6.85752779e-02,
          2.62386352e-01, 2.60837544e-02, 0., 5.70365600e-03,
          8.11606832e-03, 0., 5.33091612e-02, 7.23018125e-02,
          9.77661684e-02, 4.25146222e-02, 4.98167127e-02, 9.89041571e-03,
          5.80613203e-02, 9.57628861e-02, 1.41670302e-01, 1.52160212e-01,
          2.12364271e-01, 4.37275358e-02, 1.65779203e-01, 8.23914856e-02,
          9.28215235e-02, 1.85427845e-01, 1.48997918e-01, 1.53052226e-01,
          2.75484174e-01, 1.07145168e-01, 1.81927189e-01, 0.,
          1.11188352e-01, 6.98746145e-02, 1.34692818e-01, 1.24365330e-01,
          3.16522151e-01, 8.18408802e-02, 6.08122312e-02, 1.09487601e-01,
          1.09740652e-01, 8.32470581e-02, 1.35727733e-01, 1.30808607e-01,
          3.84757429e-01, 1.53799504e-01, 0., 0., 7.24765211e-02, 0.,
          5.20269200e-03, 0. ]
      - [ 2.20069274e-01, 1.72579408e-01, 1.80564642e-01, 1.79223478e-01,
          3.82599831e-02, 8.00559483e-03, 1.34801611e-01, 9.46037248e-02,
          1.63043067e-02, 1.70065224e-01, 1.00072235e-01, 9.14985463e-02,
          1.17036991e-01, 2.62331795e-02, 7.90222175e-03, 6.55588657e-02,
          2.64987320e-01, 3.11453268e-02, 1.23425731e-02, 1.33554250e-01,
          8.55738148e-02, 7.24361241e-02, 8.88050646e-02, 6.03545271e-02,
          2.78678298e-01, 4.50187642e-03, 8.00559483e-03, 0.,
          1.07073272e-02, 5.42963929e-02, 2.21092060e-01, 1.31049857e-01,
          2.03858986e-01, 0., 0., 4.76015499e-03, 2.06168398e-01,
          1.16613977e-01, 1.58197790e-01, 1.67883709e-01, 2.29058042e-01,
          2.40277965e-02, 1.91035289e-02, 1.97776705e-02, 7.19613060e-02,
          1.28721476e-01, 1.10751972e-01, 6.80266470e-02, 3.06108057e-01,
          6.80151433e-02, 9.49285030e-02, 7.07105398e-02, 0., 0.,
          7.27740824e-02, 1.05883986e-01, 3.36473137e-01, 1.28646582e-01,
          0., 0., 0., 0., 0., 0. ]
      - [ 2.23927990e-01, 5.09004742e-02, 0., 8.07120185e-03,
          1.54832095e-01, 4.01116647e-02, 2.38033637e-01, 3.37981284e-01,
          1.83031127e-01, 8.67197290e-03, 8.63106921e-03, 6.35616109e-03,
          4.84073050e-02, 1.58318967e-01, 2.43132815e-01, 3.27308327e-01,
          1.40017271e-02, 1.59962773e-02, 0., 1.14341453e-02,
          1.44136008e-02, 1.13030300e-02, 8.50124191e-03, 1.58463083e-02,
          1.33739263e-02, 1.65300015e-02, 1.30922114e-02, 1.52356476e-01,
          2.56473795e-02, 1.87666163e-01, 5.40312901e-02, 8.98896903e-03,
          1.82202131e-01, 1.39368728e-01, 1.09605856e-01, 1.24635503e-01,
          7.49029070e-02, 0., 0., 3.23714674e-01, 2.11600035e-01,
          1.79686874e-01, 1.58196673e-01, 6.64730892e-02, 6.84592202e-02,
          0., 0., 3.29492569e-01, 5.05486876e-03, 4.25062096e-03, 0., 0.,
          1.52360853e-02, 0., 1.49223777e-02, 8.07120185e-03,
          1.14497505e-02, 7.44804218e-02, 1.72540933e-01, 1.11804999e-01,
          1.75105799e-02, 1.06897466e-02, 1.12460861e-02, 6.35616109e-03 ]
      - [ 2.36793160e-01, 1.92487746e-01, 2.02146754e-01, 8.63776952e-02,
          3.79924141e-02, 1.11015374e-02, 1.08987778e-01, 1.24048874e-01,
          1.01302698e-01, 1.79767579e-01, 8.44491422e-02, 1.35304093e-01,
          1.20309144e-02, 0., 2.94026900e-02, 6.25916049e-02,
          2.01585606e-01, 3.35803181e-02, 5.68906823e-03, 1.05093583e-01,
          9.72610991e-03, 1.24211438e-01, 8.76695290e-02, 4.00316902e-02,
          2.41621554e-01, 6.52762428e-02, 0., 4.78391675e-03,
          1.01817911e-02, 1.04403250e-01, 2.26211995e-01, 1.73679918e-01,
          2.35093951e-01, 0., 0., 8.58827010e-02, 1.22257896e-01,
          9.64231491e-02, 1.55843303e-01, 1.73107147e-01, 2.72548467e-01,
          2.53292210e-02, 0., 0., 1.16882116e-01, 9.98770446e-02,
          1.14393078e-01, 7.23005757e-02, 2.62860298e-01, 0.,
          1.59045935e-01, 0., 0., 3.62943448e-02, 1.06844842e-01,
          1.33661211e-01, 2.70009518e-01, 1.91720858e-01, 1.27355844e-01,
          0., 0., 0., 5.82815818e-02, 1.08777002e-01 ]
      - [ 2.15396121e-01, 9.99661610e-02, 6.55903807e-03, 7.80005474e-03,
          1.03623690e-02, 0., 8.55932757e-03, 3.08011413e-01,
          1.12524787e-02, 1.30855545e-01, 1.39433935e-01, 1.34432435e-01,
          1.35530278e-01, 6.55903807e-03, 7.94001743e-02, 3.31485927e-01,
          1.61374658e-02, 7.48949219e-03, 6.55903807e-03, 5.51547157e-03,
          7.49318078e-02, 1.16928536e-02, 8.84551182e-02, 2.78891891e-01,
          7.28268027e-02, 6.55768290e-02, 0., 1.10803291e-01,
          1.12290300e-01, 1.35783508e-01, 1.24530047e-01, 2.83248246e-01,
          0., 0., 0., 0., 8.77258647e-03, 6.37851357e-02, 2.24025384e-01,
          2.20419139e-01, 1.89457238e-01, 1.07347220e-01, 7.70690069e-02,
          0., 7.23251924e-02, 9.46855843e-02, 1.93612888e-01,
          2.44400397e-01, 1.24402039e-01, 1.08877271e-01, 3.12987752e-02,
          6.36556521e-02, 7.04698497e-03, 0., 6.96335062e-02,
          1.56920090e-01, 1.33697882e-01, 1.32018223e-01, 1.00103676e-01,
          1.11021809e-01, 4.38629324e-03, 5.60159795e-02, 9.81615670e-03,
          1.67943925e-01 ]
      - [ 1.43016502e-01, 9.05347615e-03, 8.57707579e-03, 9.57288593e-03,
          1.49579784e-02, 0., 9.17509105e-03, 3.57689947e-01,
          1.29911885e-01, 1.17337666e-01, 6.24061897e-02, 0.,
          1.24320360e-02, 7.07992315e-02, 1.10881990e-02, 3.82158399e-01,
          5.52690821e-03, 7.39213265e-03, 0., 1.04241207e-01,
          9.40664336e-02, 1.13969995e-02, 7.98281208e-02, 2.40183026e-01,
          8.31552669e-02, 1.00030033e-02, 4.28029448e-02, 9.93670225e-02,
          1.52124375e-01, 1.70580536e-01, 9.74595696e-02, 2.63906777e-01,
          1.32357746e-01, 0., 0., 0., 0., 6.58497661e-02, 1.50593072e-01,
          2.27590874e-01, 1.68808669e-01, 1.35547370e-01, 9.37120095e-02,
          5.92668019e-02, 0., 1.29271433e-01, 1.14446491e-01,
          2.74437577e-01, 0., 1.17474660e-01, 1.71979740e-01, 0., 0., 0.,
          7.09579140e-02, 1.55474856e-01, 1.26854509e-01, 8.73978734e-02,
          1.84432536e-01, 1.25264153e-01, 6.46271184e-02, 0.,
          1.05003854e-02, 1.41951010e-01 ]
      - [ 2.73362219e-01, 1.95002988e-01, 1.54842570e-01, 1.36770874e-01,
          5.11261821e-03, 0., 3.03998101e-03, 7.34746456e-03,
          2.26382554e-01, 1.08725406e-01, 1.21010154e-01, 3.33112404e-02,
          9.56483278e-03, 5.40593546e-03, 1.40252821e-02, 6.79760426e-03,
          2.30515763e-01, 1.06266988e-02, 5.40593546e-03, 0.,
          1.10111654e-01, 1.02877267e-01, 7.30985031e-02, 1.13762267e-01,
          2.57378191e-01, 1.29555548e-02, 1.10250963e-02, 0.,
          6.26165280e-03, 1.49902150e-01, 1.98382527e-01, 1.81107819e-01,
          1.16405554e-01, 5.40593546e-03, 0., 7.95747638e-02,
          8.11609328e-02, 1.92561880e-01, 1.53355941e-01, 1.92414597e-01,
          2.15815037e-01, 1.99533291e-02, 2.10707411e-02, 1.14117056e-01,
          8.37657377e-02, 7.39216879e-02, 1.44442216e-01, 1.81530207e-01,
          2.86783278e-01, 8.16981643e-02, 6.67929053e-02, 1.58586279e-01,
          6.26165280e-03, 2.25506891e-02, 0., 2.61078179e-02,
          3.11024159e-01, 1.84178084e-01, 9.19110328e-02, 6.79760426e-03,
          0., 0., 6.79760380e-03, 0. ]
      - [ 2.37288848e-01, 1.89926937e-01, 2.11398840e-01, 1.21481471e-01,
          1.08534126e-02, 7.48795690e-03, 1.59995016e-02, 0.,
          1.84019163e-01, 1.34230971e-01, 1.04948990e-01, 6.76813200e-02,
          1.33822393e-02, 5.73804323e-03, 9.12659522e-03, 0.,
          2.65572101e-01, 3.22673889e-03, 6.55203266e-03, 3.63228507e-02,
          8.35613534e-02, 1.00975871e-01, 1.13210425e-01, 1.10429861e-01,
          2.67549008e-01, 2.02219076e-02, 0., 4.82510030e-03,
          3.07514668e-02, 1.49586231e-01, 1.73143432e-01, 1.79708496e-01,
          7.89367557e-02, 0., 0., 2.92171910e-02, 1.72058731e-01,
          1.98429599e-01, 1.59318805e-01, 1.82079315e-01, 1.72726497e-01,
          1.41804833e-02, 0., 1.15233928e-01, 7.13998973e-02,
          1.01653650e-01, 1.00432478e-01, 1.79668233e-01, 2.69859016e-01,
          0., 9.51242745e-02, 1.35066584e-01, 5.06236330e-02,
          3.47665921e-02, 0., 0., 3.41878593e-01, 1.46504477e-01,
          9.29527730e-02, 0., 0., 0., 1.68578774e-02, 1.46301687e-01 ]
      - [ 2.32902899e-01, 1.75333560e-01, 1.91380411e-01, 0.,
          1.41507518e-02, 8.13670550e-03, 8.19223747e-03, 5.72411390e-03,
          2.37647727e-01, 1.01991788e-01, 1.29610896e-01, 6.69857934e-02,
          9.19666700e-03, 4.68111634e-02, 1.31012738e-01, 9.99122486e-02,
          3.01983356e-01, 1.49325831e-02, 7.58119067e-03, 0.,
          1.11956336e-01, 1.07712835e-01, 9.83162299e-02, 8.04685205e-02,
          2.55749375e-01, 9.64948349e-03, 9.28502437e-03, 0.,
          9.48481634e-03, 1.44990802e-01, 1.66344687e-01, 8.16978738e-02,
          1.97688684e-01, 1.57503281e-02, 0., 0., 3.58492369e-03,
          1.38637215e-01, 1.73296243e-01, 1.32419199e-01, 2.80070633e-01,
          1.63171031e-02, 2.47590560e-02, 1.12798005e-01, 7.32560009e-02,
          1.06519796e-01, 1.50678292e-01, 1.05727054e-01, 2.86182612e-01,
          8.19720775e-02, 7.58119067e-03, 1.33470863e-01, 1.14268921e-01,
          0., 5.22135291e-03, 0., 3.15310717e-01, 1.74528420e-01,
          9.68173295e-02, 0., 6.37499616e-03, 0., 0., 0. ]
      - [ 2.20659062e-01, 1.89796209e-01, 1.94406316e-01, 0.,
          1.41868759e-02, 8.15747771e-03, 8.75156000e-03, 5.73872635e-03,
          2.37826094e-01, 1.11068115e-01, 1.21839948e-01, 6.64357543e-02,
          9.22014378e-03, 4.64575291e-02, 1.31269515e-01, 9.95213091e-02,
          2.80128926e-01, 1.80230532e-02, 7.60054402e-03, 0.,
          1.12199947e-01, 1.08095862e-01, 9.83011797e-02, 7.55439550e-02,
          2.55929053e-01, 1.74821913e-02, 9.76875518e-03, 0.,
          3.19773294e-02, 1.38262302e-01, 1.67258337e-01, 1.31610155e-01,
          1.98085368e-01, 1.81704853e-02, 0., 0., 3.59407533e-03,
          1.37445226e-01, 1.73045874e-01, 1.34574711e-01, 2.80707181e-01,
          1.83798335e-02, 2.62567569e-02, 1.12853281e-01, 7.36213699e-02,
          1.06578283e-01, 1.51485533e-01, 1.06642619e-01, 2.86362469e-01,
          8.22033137e-02, 7.60054402e-03, 1.30037129e-01, 1.14560626e-01,
          2.75109522e-02, 5.23468200e-03, 0., 3.15295815e-01,
          1.77225068e-01, 9.52071026e-02, 0., 0., 6.13679877e-03, 0., 0. ]
      - [ 2.44867116e-01, 1.86272785e-01, 1.91970035e-01, 7.75841027e-02,
          1.18715344e-02, 8.12417362e-03, 8.71583074e-03, 4.50085988e-03,
          2.36759797e-01, 1.10530779e-01, 1.21005207e-01, 6.54877499e-02,
          1.10794716e-02, 8.12417362e-03, 9.84967202e-02, 6.93208650e-02,
          2.55072445e-01, 1.94823816e-02, 0., 0., 1.12042554e-01,
          1.07534505e-01, 9.81224850e-02, 7.51254261e-02, 2.55202949e-01,
          2.08037272e-02, 9.72887315e-03, 0., 3.09327636e-02,
          1.37266353e-01, 1.92533180e-01, 1.49633378e-01, 1.97140977e-01,
          1.72866248e-02, 0., 0., 1.18977517e-01, 1.11244179e-01,
          1.68775216e-01, 1.33979559e-01, 2.77034700e-01, 3.08401380e-02,
          0., 1.12410881e-01, 7.38308132e-02, 1.06381990e-01,
          1.51190147e-01, 1.06551558e-01, 2.85022736e-01, 8.18081945e-02,
          7.56951421e-03, 1.29043803e-01, 1.14120759e-01, 2.72558630e-02,
          4.25665034e-03, 0., 3.13862711e-01, 1.76397920e-01,
          9.48184058e-02, 0., 0., 6.11174479e-03, 0., 0. ]
      - [ 2.17311129e-01, 1.89004630e-01, 1.89506456e-01, 7.71579072e-02,
          1.41439084e-02, 8.13277066e-03, 8.72505456e-03, 5.72134554e-03,
          2.37142071e-01, 1.10783063e-01, 1.21333472e-01, 6.64945394e-02,
          1.02370661e-02, 4.63168249e-02, 1.30871937e-01, 9.92198884e-02,
          2.79281467e-01, 1.79684665e-02, 7.57752405e-03, 0.,
          1.11860126e-01, 1.07768469e-01, 9.81207192e-02, 7.50973448e-02,
          2.55136967e-01, 1.74292438e-02, 9.73916799e-03, 0.,
          3.28360908e-02, 1.38007328e-01, 1.67134345e-01, 1.30722001e-01,
          2.00848371e-01, 3.51364277e-02, 0., 0., 0., 1.31501481e-01,
          1.78063050e-01, 1.33812860e-01, 2.79881150e-01, 3.16265486e-02,
          6.11821236e-03, 1.12555064e-01, 7.39509314e-02, 1.06201768e-01,
          1.50995955e-01, 1.07037440e-01, 2.85578549e-01, 8.19543451e-02,
          7.57752405e-03, 1.29643291e-01, 1.17284149e-01, 0.,
          5.21882763e-03, 0., 3.14445227e-01, 1.76797137e-01,
          9.44465920e-02, 0., 0., 5.35811856e-03, 0., 0. ]
      - [ 1.99140847e-01, 1.50686204e-01, 1.83796868e-01, 1.46182448e-01,
          1.27989531e-01, 8.68015178e-03, 5.97823411e-03, 7.71786738e-03,
          1.23765424e-01, 7.04103038e-02, 1.26441166e-01, 1.23799384e-01,
          6.87266067e-02, 5.51612526e-02, 1.52057605e-02, 5.14295474e-02,
          3.51095289e-01, 1.90456659e-02, 8.00961815e-03, 6.55387482e-03,
          1.00541515e-02, 6.75713420e-02, 1.22255251e-01, 1.16328590e-01,
          3.47851813e-01, 3.45747061e-02, 7.79391453e-03, 9.28460900e-03,
          1.39492732e-02, 0., 7.67836794e-02, 1.59177914e-01,
          4.10459004e-03, 3.45153501e-03, 0., 1.26882613e-01,
          1.20402947e-01, 1.48938969e-01, 2.04619452e-01, 1.68797687e-01,
          7.41940588e-02, 9.23714694e-03, 5.14054000e-02, 6.57439977e-02,
          8.54083598e-02, 1.08981743e-01, 1.18173383e-01, 1.18871339e-01,
          3.65544617e-01, 0., 6.06011562e-02, 0., 0., 0., 3.45153501e-03,
          0., 3.88551116e-01, 7.38199502e-02, 0., 0., 0., 0.,
          3.42119522e-02, 1.23115502e-01 ]
      - [ 1.95430696e-01, 2.15461075e-01, 1.56499356e-01, 1.43168077e-01,
          1.22433389e-02, 5.92884189e-03, 4.71503427e-03, 1.74183711e-01,
          1.90618038e-01, 9.03609693e-02, 1.04358926e-01, 1.05799660e-01,
          7.92971067e-03, 5.92884189e-03, 8.82102083e-03, 1.79161146e-01,
          1.33974910e-01, 1.06283389e-02, 9.74738132e-03, 0.,
          1.18945660e-02, 1.31289795e-01, 8.27638153e-03, 2.26482406e-01,
          1.79282963e-01, 5.34513518e-02, 7.52858212e-03, 1.03451952e-01,
          8.92525688e-02, 1.26397893e-01, 1.53513938e-01, 2.69324094e-01,
          8.09161142e-02, 0., 6.76989742e-03, 0., 1.41981378e-01,
          2.06750959e-01, 1.40742898e-01, 2.59264439e-01, 1.17401563e-01,
          8.82102177e-03, 8.86568613e-03, 0., 5.71510382e-02,
          1.35715261e-01, 8.95526335e-02, 2.45750099e-01, 1.10943481e-01,
          1.10588521e-01, 8.71227458e-02, 1.03380159e-01, 8.05080961e-03,
          6.76989742e-03, 7.73694227e-03, 1.92430347e-01, 1.62515283e-01,
          1.89211026e-01, 1.26434669e-01, 3.93948555e-02, 1.15969531e-01,
          1.64456218e-02, 1.33285001e-01, 1.90982640e-01 ]
      - [ 3.14274698e-01, 1.56450585e-01, 1.75925434e-01, 8.39531124e-02,
          1.02554625e-02, 0., 7.28842570e-03, 7.83641562e-02,
          2.58699268e-01, 1.10793658e-01, 9.85596254e-02, 8.70397836e-02,
          1.51319727e-02, 7.56394258e-03, 1.58950482e-02, 0.,
          1.95208982e-01, 6.64988672e-03, 8.19716603e-03, 9.26386565e-03,
          1.10178903e-01, 7.44034722e-02, 8.35854858e-02, 7.50172138e-02,
          2.59039611e-01, 7.28842570e-03, 0., 1.05888598e-01,
          1.33347243e-01, 1.01626895e-01, 1.26568794e-01, 2.30948597e-01,
          2.06052139e-01, 0., 0., 0., 8.37622285e-02, 1.69067174e-01,
          1.66888103e-01, 1.56434149e-01, 2.66410708e-01, 5.01395911e-02,
          0., 0., 8.98504928e-02, 1.00434065e-01, 1.41123474e-01,
          1.51597098e-01, 1.99800417e-01, 8.71381238e-02, 8.02011415e-02,
          1.35258734e-01, 0., 0., 7.37760449e-03, 1.08781390e-01,
          2.45176464e-01, 1.23415455e-01, 1.55503452e-01, 1.39031172e-01,
          6.06178567e-02, 3.95264439e-02, 1.11388534e-01, 7.38114864e-02 ]
      - [ 2.06262082e-01, 2.15330914e-01, 1.55922547e-01, 1.42906740e-01,
          1.22272624e-02, 5.92105696e-03, 7.44533446e-03, 1.58978552e-01,
          2.03370675e-01, 9.02423188e-02, 1.04221895e-01, 1.05641402e-01,
          7.91929848e-03, 5.92105696e-03, 9.41768568e-03, 1.66650847e-01,
          1.33846030e-01, 1.06143830e-02, 9.73458216e-03, 0.,
          1.07458107e-01, 7.76553079e-02, 8.26551393e-03, 2.43336990e-01,
          1.56365648e-01, 1.25130825e-02, 7.51869660e-03, 1.15150839e-01,
          8.89445469e-02, 1.26043335e-01, 1.53463930e-01, 2.69216746e-01,
          8.01769048e-02, 0., 6.76100794e-03, 0., 1.42143369e-01,
          2.03740343e-01, 1.44681096e-01, 2.44534343e-01, 1.32685229e-01,
          8.80943891e-03, 4.27699685e-02, 0., 5.75441755e-02,
          1.35537058e-01, 1.49772972e-01, 2.11269602e-01, 1.86830491e-01,
          7.99407884e-02, 1.13930218e-01, 1.17930099e-01, 0., 0.,
          8.80943891e-03, 2.12353408e-01, 1.35258451e-01, 1.87339544e-01,
          1.29891783e-01, 8.77621621e-02, 1.14947423e-01, 1.71328150e-02,
          3.93567458e-02, 1.58333465e-01 ]
      - [ 1.78375095e-01, 7.84230884e-03, 0., 1.15006370e-02,
          9.32612922e-03, 1.05837639e-02, 6.79163868e-03, 4.03776795e-01,
          1.30232304e-01, 9.60482750e-03, 0., 0., 8.82433541e-03, 0., 0.,
          3.85716707e-01, 6.26141056e-02, 0., 0., 0., 1.08108036e-01,
          8.60556513e-02, 2.07263157e-02, 2.36780107e-01, 5.64182214e-02,
          6.79163868e-03, 9.86118149e-03, 1.30914629e-01, 1.50773257e-01,
          1.38970777e-01, 1.40503585e-01, 2.33891532e-01, 1.92919016e-01,
          0., 0., 0., 0., 6.97290804e-03, 8.90911650e-03, 2.63948321e-01,
          2.32126996e-01, 6.87953904e-02, 0., 0., 5.64445592e-02,
          6.97290804e-03, 1.51612386e-01, 2.67575860e-01, 1.35840729e-01,
          1.46429315e-01, 7.19687194e-02, 4.82472256e-02, 1.08059138e-01,
          0., 0., 1.13168009e-01, 1.27804458e-01, 1.20572098e-01,
          1.86053902e-01, 9.84931663e-02, 1.08316228e-01, 0.,
          6.79163868e-03, 5.86349377e-03 ]
      - [ 1.56716898e-01, 1.91255808e-01, 1.33482069e-01, 4.45458340e-03,
          3.54259973e-03, 6.91296067e-03, 0., 2.24334106e-01,
          1.70191750e-01, 8.41197744e-02, 0., 1.23095289e-01,
          1.12606212e-01, 0., 1.81667767e-02, 2.39313945e-01,
          1.91056877e-01, 0., 0., 9.80870426e-03, 1.30702913e-01,
          1.12835668e-01, 1.09911680e-01, 2.05928713e-01, 1.59777477e-01,
          7.49168638e-03, 0., 0., 1.10533200e-01, 1.73875168e-01,
          1.08074456e-01, 2.34729797e-01, 0., 1.17489815e-01, 0., 0., 0.,
          1.33325458e-01, 1.65497616e-01, 2.73402989e-01, 1.39248788e-01,
          0., 0., 0., 1.23868614e-01, 9.49720815e-02, 8.32924470e-02,
          2.44294882e-01, 1.53051898e-01, 1.04740031e-01, 1.44289374e-01,
          1.06653601e-01, 0., 0., 6.07757177e-03, 2.15866834e-01,
          2.15651438e-01, 1.64064527e-01, 1.18743204e-01, 9.02476534e-02,
          0., 0., 1.08907297e-01, 1.69130653e-01 ]
      - [ 2.82434076e-01, 1.49220139e-01, 1.27420738e-01, 8.18840694e-03,
          1.05857383e-02, 3.64935324e-02, 9.61851515e-03, 1.10614978e-01,
          2.33580977e-01, 1.02135867e-01, 1.87541828e-01, 9.13200993e-03,
          2.03862470e-02, 0., 0., 1.17107533e-01, 2.75046170e-01,
          9.16658808e-03, 6.88560214e-03, 6.27999678e-02, 8.74715373e-02,
          1.10370301e-01, 1.41225636e-01, 7.70271719e-02, 2.51923740e-01,
          3.07982750e-02, 0., 6.67040050e-02, 7.99150690e-02,
          8.17831159e-02, 1.82232171e-01, 9.52680632e-02, 1.94951311e-01,
          1.28573284e-01, 5.27645741e-03, 0., 7.05715921e-03,
          6.87894300e-02, 1.59956172e-01, 1.77747279e-01, 2.48865589e-01,
          8.47711507e-03, 1.84038151e-02, 5.63414814e-03, 1.11519702e-01,
          1.84022203e-01, 9.46710929e-02, 1.09110221e-01, 2.64859378e-01,
          7.28394017e-02, 1.31356716e-01, 1.38724461e-01, 1.23057300e-02,
          0., 0., 3.29134874e-02, 3.05262238e-01, 1.26968101e-01,
          1.24047861e-01, 1.15569972e-01, 7.05715921e-03, 2.81880610e-02,
          0., 7.54758567e-02 ]
      - [ 1.32051915e-01, 1.57798484e-01, 1.05643243e-01, 1.07398421e-01,
          3.92416827e-02, 0., 7.82777276e-03, 2.45207191e-01,
          8.16342905e-02, 9.38826799e-02, 1.03770867e-01, 1.32045969e-01,
          7.84041956e-02, 0., 5.00965910e-03, 2.68826962e-01,
          1.46788076e-01, 1.31557524e-01, 0., 0., 6.33529499e-02,
          1.57189324e-01, 8.98964852e-02, 2.75082558e-01, 4.86429688e-03,
          0., 0., 4.32503922e-03, 4.86429688e-03, 1.28268450e-01,
          1.82770401e-01, 2.10276514e-01, 9.72859375e-03, 5.00965910e-03,
          0., 7.73333088e-02, 1.07539810e-01, 1.75375208e-01,
          1.14074513e-01, 2.74876177e-01, 1.02907792e-01, 5.00965910e-03,
          0., 0., 1.07836045e-01, 1.26877680e-01, 1.13770373e-01,
          2.51763791e-01, 3.58557105e-02, 7.08983913e-02, 1.65328890e-01,
          1.10403247e-01, 4.86429688e-03, 0., 9.50126797e-02,
          2.02417046e-01, 1.82793960e-01, 1.87301964e-01, 1.30092070e-01,
          0., 1.08768977e-02, 1.08768977e-02, 2.22316980e-02,
          2.68286139e-01 ]
      - [ 2.97898680e-01, 1.89166039e-01, 1.46678433e-01, 6.72443444e-03,
          2.28703152e-02, 0., 9.02177580e-03, 1.03157692e-01,
          2.25549504e-01, 1.03556439e-01, 1.18185878e-01, 4.05173749e-02,
          1.18610896e-02, 8.11702665e-03, 9.50978603e-03, 6.35957764e-03,
          2.98859715e-01, 8.11702665e-03, 9.72031429e-03, 0.,
          4.08032276e-02, 9.31926519e-02, 9.93518606e-02, 1.86339617e-01,
          2.17837706e-01, 8.50581098e-03, 0., 4.49690036e-03,
          6.24701679e-02, 1.58158794e-01, 1.19908392e-01, 1.57997772e-01,
          1.95069328e-01, 0., 4.76248264e-02, 1.95333064e-02,
          6.88847676e-02, 8.72447044e-02, 2.32262745e-01, 1.23450972e-01,
          2.53293365e-01, 3.77645418e-02, 0., 0., 4.20513898e-02,
          1.14737272e-01, 1.48101017e-01, 1.22752905e-01, 1.95504695e-01,
          8.89540166e-02, 1.43366516e-01, 0., 0., 0., 6.29768372e-02,
          2.23156318e-01, 2.33748496e-01, 1.85778946e-01, 1.11866362e-01,
          6.35388568e-02, 0., 0., 4.92824428e-02, 1.91179037e-01 ]
      - [ 2.02678204e-01, 1.20621830e-01, 1.51455015e-01, 3.16303633e-02,
          7.96112232e-03, 1.84745453e-02, 0., 1.59762993e-01,
          2.13129535e-01, 1.29690260e-01, 9.44522321e-02, 8.15594941e-02,
          1.07768290e-02, 5.32392319e-03, 5.18552121e-03, 2.45333970e-01,
          1.25125468e-01, 6.10797573e-03, 6.94754347e-03, 2.12977715e-02,
          7.35191107e-02, 1.40454710e-01, 1.79800689e-01, 1.00798778e-01,
          1.75051287e-01, 9.05979648e-02, 2.18882728e-02, 0.,
          1.20996013e-02, 1.48164749e-01, 1.27552271e-01, 2.92316049e-01,
          1.41725108e-01, 1.00784741e-01, 3.77571359e-02, 0.,
          6.16665883e-03, 1.14208959e-01, 1.47755235e-01, 2.88775027e-01,
          1.30140200e-01, 1.17199495e-02, 0., 6.33124728e-03,
          1.16146468e-01, 1.50215611e-01, 1.25064239e-01, 1.83406651e-01,
          1.09594561e-01, 1.05757378e-01, 9.19558480e-02, 7.33185485e-02,
          1.12747714e-01, 0., 8.52016453e-03, 2.54373372e-01,
          1.89551905e-01, 1.25422269e-01, 1.61209539e-01, 4.34821285e-02,
          1.15519660e-02, 5.32392319e-03, 0., 2.50443429e-01 ]
      - [ 1.84158564e-01, 2.27257028e-01, 1.25569463e-01, 7.30642118e-03,
          9.94446874e-03, 4.43347245e-02, 7.54102170e-02, 2.17981547e-01,
          1.25726700e-01, 1.46727949e-01, 0., 0., 1.67499445e-02, 0.,
          1.44452974e-02, 2.47231796e-01, 2.17404529e-01, 7.30642118e-03,
          0., 9.13171098e-03, 1.33160204e-02, 0., 1.34938568e-01,
          2.56564498e-01, 1.41523495e-01, 0., 4.74366881e-02, 0.,
          5.49531030e-03, 5.46298325e-02, 1.81941658e-01, 2.74848014e-01,
          1.49119124e-01, 0., 1.56034473e-02, 8.98927301e-02,
          4.61218245e-02, 6.90944493e-02, 1.76446512e-01, 2.56929934e-01,
          1.63848788e-01, 6.45879358e-02, 0., 0., 1.22245573e-01,
          1.33880839e-01, 1.33503944e-01, 1.23497471e-01, 1.64342180e-01,
          1.58346891e-01, 3.38084549e-02, 0., 1.07051067e-01, 0.,
          5.55565692e-02, 2.84017086e-01, 2.07852617e-01, 7.25319237e-02,
          5.45103885e-02, 0., 8.92433673e-02, 5.48766963e-02, 0.,
          1.90878108e-01 ]
      - [ 2.97898680e-01, 1.89166039e-01, 1.46678433e-01, 6.72443444e-03,
          2.28703152e-02, 0., 9.02177580e-03, 1.03157692e-01,
          2.25549504e-01, 1.03556439e-01, 1.18185878e-01, 4.05173749e-02,
          1.18610896e-02, 8.11702665e-03, 9.50978603e-03, 6.35957764e-03,
          2.98859715e-01, 8.11702665e-03, 9.72031429e-03, 0.,
          4.08032276e-02, 9.31926519e-02, 9.93518606e-02, 1.86339617e-01,
          2.17837706e-01, 8.50581098e-03, 0., 4.49690036e-03,
          6.24701679e-02, 1.58158794e-01, 1.19908392e-01, 1.57997772e-01,
          1.95069328e-01, 0., 4.76248264e-02, 1.95333064e-02,
          6.88847676e-02, 8.72447044e-02, 2.32262745e-01, 1.23450972e-01,
          2.53293365e-01, 3.77645418e-02, 0., 0., 4.20513898e-02,
          1.14737272e-01, 1.48101017e-01, 1.22752905e-01, 1.95504695e-01,
          8.89540166e-02, 1.43366516e-01, 0., 0., 0., 6.29768372e-02,
          2.23156318e-01, 2.33748496e-01, 1.85778946e-01, 1.11866362e-01,
          6.35388568e-02, 0., 0., 4.92824428e-02, 1.91179037e-01 ]
      - [ 1.84158564e-01, 2.27257028e-01, 1.25569463e-01, 7.30642118e-03,
          9.94446874e-03, 4.43347245e-02, 7.54102170e-02, 2.17981547e-01,
          1.25726700e-01, 1.46727949e-01, 0., 0., 1.67499445e-02, 0.,
          1.44452974e-02, 2.47231796e-01, 2.17404529e-01, 7.30642118e-03,
          0., 9.13171098e-03, 1.33160204e-02, 0., 1.34938568e-01,
          2.56564498e-01, 1.41523495e-01, 0., 4.74366881e-02, 0.,
          5.49531030e-03, 5.46298325e-02, 1.81941658e-01, 2.74848014e-01,
          1.49119124e-01, 0., 1.56034473e-02, 8.98927301e-02,
          4.61218245e-02, 6.90944493e-02, 1.76446512e-01, 2.56929934e-01,
          1.63848788e-01, 6.45879358e-02, 0., 0., 1.22245573e-01,
          1.33880839e-01, 1.33503944e-01, 1.23497471e-01, 1.64342180e-01,
          1.58346891e-01, 3.38084549e-02, 0., 1.07051067e-01, 0.,
          5.55565692e-02, 2.84017086e-01, 2.07852617e-01, 7.25319237e-02,
          5.45103885e-02, 0., 8.92433673e-02, 5.48766963e-02, 0.,
          1.90878108e-01 ]
      - [ 2.96214938e-01, 1.68518111e-01, 7.83682764e-02, 5.63607644e-03,
          1.20122442e-02, 0., 2.94795390e-02, 1.23650700e-01,
          2.25326061e-01, 1.05409488e-01, 9.67669189e-02, 1.55534938e-01,
          1.14919826e-01, 0., 4.19764780e-03, 8.72546360e-02,
          2.69260317e-01, 1.11059332e-02, 0., 1.09835319e-01,
          5.51971681e-02, 1.25860274e-01, 1.16760239e-01, 2.52403945e-01,
          4.99187270e-03, 0., 0., 0., 1.64831340e-01, 1.67990819e-01,
          1.28450722e-01, 1.10519513e-01, 2.49840587e-01, 5.93637070e-03,
          0., 0., 1.06844027e-02, 2.95338240e-02, 1.90138236e-01,
          1.42864630e-01, 2.73821801e-01, 0., 7.32051209e-03, 0.,
          1.12454876e-01, 1.10315017e-01, 1.05879754e-01, 9.03327540e-02,
          2.39986554e-01, 1.44777536e-01, 1.25723958e-01, 0.,
          7.89284427e-03, 0., 2.99887210e-02, 1.15233749e-01,
          2.37240747e-01, 1.87934384e-01, 1.92416146e-01, 5.85156865e-02,
          1.22275418e-02, 5.27826278e-03, 2.96818535e-03, 0. ]
      - [ 2.41246387e-01, 2.04464152e-01, 1.19014606e-01, 0.,
          1.15622403e-02, 5.31518413e-03, 1.00235464e-02, 1.13286197e-01,
          1.96147442e-01, 1.91035375e-01, 9.47883204e-02, 7.87557736e-02,
          1.17888693e-02, 0., 7.97273815e-02, 1.45400271e-01,
          2.03486323e-01, 6.68348977e-03, 0., 0., 8.69682729e-02,
          1.45544454e-01, 1.40997246e-01, 1.52323991e-01, 1.52415678e-01,
          5.69432974e-02, 0., 4.46951902e-03, 1.04786076e-01,
          9.36295539e-02, 1.73577562e-01, 2.30613112e-01, 2.06370160e-01,
          7.32139638e-03, 0., 7.21752038e-03, 7.10948259e-02,
          9.28145796e-02, 1.44241378e-01, 2.24999100e-01, 2.31907755e-01,
          1.20137455e-02, 0., 0., 1.11282974e-01, 1.78220436e-01,
          9.19399485e-02, 1.46035850e-01, 1.60084769e-01, 1.92249686e-01,
          1.26484960e-01, 1.18977591e-01, 7.94805400e-03, 6.06918707e-03,
          1.06244572e-01, 2.03462705e-01, 1.95461243e-01, 1.76620081e-01,
          1.31622434e-01, 1.06067210e-01, 1.20797399e-02, 0., 0.,
          1.13216050e-01 ]
      - [ 2.45146260e-01, 1.67992100e-01, 1.16015784e-01, 1.10762179e-01,
          8.64361599e-03, 2.50042044e-02, 2.04303771e-01, 4.43715742e-03,
          1.13455601e-01, 1.51353121e-01, 1.14057362e-01, 1.10775903e-01,
          9.33617260e-03, 0., 5.13952458e-03, 1.77923366e-01,
          2.63289481e-01, 0., 0., 0., 1.20762317e-02, 1.37362853e-01,
          1.48950547e-01, 1.43137708e-01, 1.58935666e-01, 1.18572332e-01,
          3.12650651e-02, 0., 9.33617260e-03, 1.67867944e-01,
          1.39230847e-01, 1.58131853e-01, 1.72241747e-01, 5.13952458e-03,
          0., 0., 1.17035117e-02, 1.50970235e-01, 2.07403123e-01,
          1.88302308e-01, 2.08719730e-01, 8.00918881e-03, 0.,
          1.12367727e-01, 1.11563183e-01, 1.11147322e-01, 1.05829053e-01,
          1.69196248e-01, 1.82498917e-01, 1.08894318e-01, 1.59558430e-01,
          1.12020336e-01, 1.05862245e-02, 7.31834350e-03, 5.93461189e-03,
          1.38160378e-01, 2.80997187e-01, 1.50865451e-01, 1.37060925e-01,
          0., 8.64361599e-03, 5.27669908e-03, 2.96730595e-03,
          1.77883312e-01 ]
      - [ 3.24543744e-01, 1.77582428e-01, 6.92817988e-03, 0.,
          1.21012339e-02, 0., 1.11501232e-01, 1.71054259e-01,
          1.20668635e-01, 1.72324285e-01, 7.48852044e-02, 1.20559476e-01,
          1.03199668e-02, 6.92817988e-03, 5.31418202e-03, 4.80047651e-02,
          2.84557283e-01, 8.11754726e-03, 0., 0., 8.92391503e-02,
          1.02721266e-01, 2.03639627e-01, 1.19742360e-02, 1.81246266e-01,
          9.76372883e-02, 9.31602251e-03, 0., 9.65344533e-03,
          1.24646075e-01, 1.78492293e-01, 1.37708962e-01, 2.54161358e-01,
          1.04967766e-02, 0., 0., 2.15723123e-02, 2.48123147e-02,
          1.84748560e-01, 2.26754203e-01, 2.31803566e-01, 8.17476027e-03,
          6.22999994e-03, 1.05449021e-01, 1.28540590e-01, 7.19832480e-02,
          8.94319415e-02, 7.79706538e-02, 2.59357661e-01, 9.36851501e-02,
          1.21567354e-01, 1.21398181e-01, 6.31966349e-03, 0.,
          7.11992336e-03, 5.82588185e-03, 3.05769593e-01, 2.11683273e-01,
          8.98156166e-02, 7.94655643e-03, 8.15865025e-03, 0.,
          3.06814443e-03, 0. ]
      - [ 2.15392053e-01, 1.50838912e-01, 0., 2.19198707e-02,
          1.17814690e-02, 0., 5.93055738e-03, 2.70943314e-01,
          8.17110613e-02, 9.44244489e-02, 1.07659288e-01, 1.46411091e-01,
          7.88511522e-03, 2.48862393e-02, 1.03280634e-01, 2.21731409e-01,
          1.12543613e-01, 4.56835032e-02, 7.88511522e-03, 0.,
          1.41138390e-01, 1.43728837e-01, 4.04801480e-02, 2.18033955e-01,
          1.52978271e-01, 5.13601350e-03, 0., 4.43412596e-03,
          9.04635340e-03, 1.19135112e-01, 1.01638332e-01, 2.98811913e-01,
          2.59444602e-02, 6.69589872e-03, 7.45728146e-03, 7.50345876e-03,
          6.75143823e-02, 1.20379969e-01, 1.29292384e-01, 2.23640338e-01,
          2.12610841e-01, 8.03918615e-02, 0., 0., 1.21294230e-01,
          1.25464857e-01, 9.08999965e-02, 2.83142656e-01, 6.10778388e-03,
          1.47435829e-01, 1.19386889e-01, 0., 1.12484373e-01,
          3.99208963e-02, 1.03428327e-01, 1.81966662e-01, 2.25525200e-01,
          1.46080494e-01, 1.25550076e-01, 5.37634082e-02, 1.44156590e-02,
          4.50395904e-02, 2.68646348e-02, 2.46340841e-01 ]
      - [ 3.24484587e-01, 1.16815180e-01, 8.24742019e-02, 0.,
          1.30958604e-02, 5.75441122e-03, 5.75441122e-03, 1.25538325e-02,
          2.59234279e-01, 1.01671390e-01, 8.75264183e-02, 5.40089868e-02,
          1.23057663e-01, 5.75441122e-03, 4.57631471e-03, 1.12792283e-01,
          2.73302585e-01, 1.41784688e-02, 0., 1.21985823e-01,
          2.40512732e-02, 1.08489387e-01, 1.02508165e-01, 8.26532096e-02,
          2.46459231e-01, 6.60186168e-03, 0., 0., 0., 6.78111836e-02,
          1.20411880e-01, 2.05908403e-01, 2.72118628e-01, 0., 0., 0., 0.,
          8.66320282e-02, 1.85643300e-01, 1.85884625e-01, 2.83451080e-01,
          1.62299555e-02, 0., 0., 0., 9.46470499e-02, 1.03798114e-01,
          7.90644139e-02, 2.82723933e-01, 1.02018394e-01, 9.99751687e-02,
          0., 0., 0., 1.12557905e-02, 0., 3.39757025e-01, 1.92306384e-01,
          7.76106790e-02, 0., 0., 0., 4.57631471e-03, 0. ]
      - [ 2.20192477e-01, 2.23509952e-01, 8.57647657e-02, 5.80873946e-03,
          7.27584679e-03, 0., 2.39117052e-02, 1.15193494e-01,
          2.21305668e-01, 1.35824919e-01, 1.36979505e-01, 1.16852716e-01,
          3.63792339e-03, 4.24292907e-02, 5.76467514e-02, 1.87693894e-01,
          3.06351423e-01, 3.00290827e-02, 1.53199984e-02, 1.14318661e-01,
          1.35681406e-01, 9.63294879e-02, 8.17383081e-02, 1.84886634e-01,
          1.82272151e-01, 4.32624435e-03, 0., 8.21479782e-03,
          1.31824650e-02, 6.25031888e-02, 1.72751978e-01, 1.19353108e-01,
          2.00245753e-01, 1.50136240e-02, 0., 0., 0., 1.31741732e-01,
          1.87637314e-01, 2.22456992e-01, 2.22499594e-01, 0., 0., 0.,
          5.57127520e-02, 9.30257887e-02, 1.46696046e-01, 1.57216206e-01,
          2.28350729e-01, 1.50715247e-01, 9.48367715e-02, 7.04052970e-02,
          0., 0., 6.24110643e-03, 0., 3.21808368e-01, 1.98290005e-01,
          1.93773434e-02, 0., 0., 0., 0., 0. ]
      - [ 2.91322410e-01, 1.16877452e-01, 9.62963551e-02, 1.11036701e-02,
          1.26608871e-02, 8.83364864e-03, 3.07337823e-03, 2.00866595e-01,
          1.96711406e-01, 9.75359976e-02, 7.43201822e-02, 1.11242950e-01,
          1.65545680e-02, 5.46532543e-03, 9.54962298e-02, 1.60261765e-01,
          1.96694791e-01, 5.50397523e-02, 6.24062726e-03, 4.59577236e-03,
          4.45430651e-02, 1.10684544e-01, 1.26687348e-01, 2.09101513e-01,
          1.42517209e-01, 6.14675647e-03, 8.98533128e-03, 4.59577236e-03,
          6.94575384e-02, 9.30490196e-02, 1.60942674e-01, 2.55410850e-01,
          0., 0., 0., 0., 6.62254915e-02, 4.58516516e-02, 1.06973581e-01,
          3.11823159e-01, 1.65079027e-01, 7.59007409e-03, 0., 0.,
          1.10995628e-01, 1.11163668e-01, 1.13342367e-01, 2.68032581e-01,
          1.75930828e-01, 1.64259136e-01, 7.49334767e-02, 1.19462565e-01,
          5.87190734e-03, 0., 9.22013447e-03, 2.46812478e-01,
          2.14386255e-01, 1.43153220e-01, 1.13979392e-01, 1.02312386e-01,
          0., 0., 9.96264592e-02, 1.37385249e-01 ]
      - [ 3.18539828e-01, 1.00585125e-01, 9.42231789e-02, 6.72964603e-02,
          1.70828905e-02, 2.32374761e-02, 7.64419734e-02, 1.92440972e-01,
          1.62655368e-01, 1.14225082e-01, 1.14609443e-01, 9.98357758e-02,
          1.19778644e-02, 0., 8.28669313e-03, 1.42543837e-01,
          2.04859510e-01, 4.37895674e-03, 5.50624682e-03, 0.,
          5.67993857e-02, 8.83558691e-02, 1.56468183e-01, 1.95122689e-01,
          1.32664368e-01, 9.89671648e-02, 6.09963499e-02, 1.17189167e-02,
          1.22126387e-02, 1.08426236e-01, 1.19946256e-01, 2.77627200e-01,
          2.34256059e-01, 4.54889126e-02, 0., 0., 0., 7.17266947e-02,
          1.72383085e-01, 2.42595300e-01, 2.19843313e-01, 0.,
          6.28735358e-03, 6.54806802e-03, 1.28862604e-01, 8.07937384e-02,
          9.77711976e-02, 1.31298974e-01, 1.88417286e-01, 9.76809487e-02,
          8.06969106e-02, 1.28043652e-01, 0., 5.50624682e-03,
          6.31715031e-03, 1.55652076e-01, 3.02879155e-01, 1.05087578e-01,
          1.24891929e-01, 0., 0., 0., 4.12744395e-02, 1.91319689e-01 ]
      - [ 2.98851371e-01, 1.47909895e-01, 9.24891755e-02, 1.14522800e-01,
          1.02440203e-02, 0., 3.04556545e-03, 5.98428920e-02,
          2.48287916e-01, 8.58038217e-02, 9.50633362e-02, 8.36340263e-02,
          1.13821380e-01, 1.90693717e-02, 7.46008102e-03, 1.14600055e-01,
          2.95165092e-01, 1.56042464e-02, 0., 1.15815811e-01,
          6.89554140e-02, 9.59411561e-02, 1.06176846e-01, 1.00616425e-01,
          2.79684812e-01, 3.04556545e-03, 0., 0., 0., 0., 1.24600589e-01,
          1.75778449e-01, 1.97557434e-01, 0., 0., 0., 1.14846587e-01,
          8.36164430e-02, 1.39567032e-01, 2.36217812e-01, 2.26022437e-01,
          4.36803624e-02, 0., 0., 2.71042101e-02, 7.14174062e-02,
          1.93799034e-01, 8.37147906e-02, 2.89909810e-01, 9.44121554e-02,
          1.34946972e-01, 6.38513789e-02, 0., 0., 4.72199582e-02,
          1.96711421e-01, 2.83394933e-01, 1.29359633e-01, 0., 0., 0., 0.,
          0., 0. ]
      - [ 2.23059162e-01, 1.85344219e-01, 1.52306408e-02, 0.,
          1.46371601e-02, 0., 1.47425264e-01, 1.84875861e-01,
          1.01684168e-01, 1.84964389e-01, 8.48907977e-02, 1.29115656e-01,
          7.21829711e-03, 9.21514072e-03, 1.56637635e-02, 2.16737494e-01,
          1.40687481e-01, 7.50988256e-03, 5.39693609e-03, 4.53826413e-03,
          8.71793404e-02, 1.07517995e-01, 1.56385243e-01, 1.85759202e-01,
          1.50664762e-01, 9.69145447e-02, 6.16253633e-03, 0.,
          1.20581640e-02, 8.59554633e-02, 1.86249554e-01, 2.76125759e-01,
          1.16205133e-01, 1.23202078e-01, 0., 0., 0., 6.18866012e-02,
          1.84406266e-01, 2.75364339e-01, 1.41126528e-01, 6.06984040e-03,
          0., 0., 1.20845698e-01, 8.09827670e-02, 1.03155755e-01,
          2.37662494e-01, 1.53513610e-01, 1.13619149e-01, 7.49063492e-02,
          1.12723626e-01, 0., 2.41025761e-02, 9.62116383e-03,
          2.15254098e-01, 2.25289658e-01, 1.76810279e-01, 8.62584859e-02,
          0., 0., 5.39693609e-03, 4.60673645e-02, 2.26123080e-01 ]
      - [ 2.46705011e-01, 2.01276183e-01, 7.61949420e-02, 4.20435853e-02,
          1.10450722e-02, 5.83937112e-03, 3.84370163e-02, 2.49041334e-01,
          1.09080695e-01, 1.13391526e-01, 9.59203988e-02, 1.32020503e-01,
          1.07520381e-02, 6.66773459e-03, 1.44766286e-01, 1.26183122e-01,
          2.01736316e-01, 4.60797064e-02, 1.06139155e-02, 3.83651406e-02,
          1.16962120e-01, 8.90864804e-02, 4.95276600e-02, 2.99152851e-01,
          6.76369807e-03, 1.00061269e-02, 6.66773459e-03, 0.,
          1.36185559e-02, 4.28565629e-02, 2.02910766e-01, 2.34848574e-01,
          1.63917542e-01, 0., 0., 0., 3.90502298e-03, 1.30690858e-01,
          1.16358399e-01, 2.89277613e-01, 1.56085581e-01, 4.64388076e-03,
          3.26859243e-02, 0., 1.09912127e-01, 1.00159846e-01,
          1.37898877e-01, 2.14288503e-01, 8.95233229e-02, 5.17789051e-02,
          2.29956061e-02, 1.29087120e-01, 1.57453254e-01, 6.43755943e-02,
          6.71108291e-02, 1.91685930e-01, 2.17777655e-01, 1.24407172e-01,
